{"learner":{"attributes":{"scikit_learn":"{\"_estimator_type\": \"classifier\"}"},"feature_names":["event_id","provider_name","process_name","command_line","parent_process","destination_ip","destination_port","query_name","process_id","parent_process_id"],"feature_types":["int","int","int","int","int","int","float","int","float","float"],"gradient_booster":{"model":{"cats":{"enc":[],"feature_segments":[],"sorted_idx":[]},"gbtree_model_param":{"num_parallel_tree":"1","num_trees":"2000"},"iteration_indptr":[0,1,2,3,4,5,6,7,8,9,10,11,12,13,14,15,16,17,18,19,20,21,22,23,24,25,26,27,28,29,30,31,32,33,34,35,36,37,38,39,40,41,42,43,44,45,46,47,48,49,50,51,52,53,54,55,56,57,58,59,60,61,62,63,64,65,66,67,68,69,70,71,72,73,74,75,76,77,78,79,80,81,82,83,84,85,86,87,88,89,90,91,92,93,94,95,96,97,98,99,100,101,102,103,104,105,106,107,108,109,110,111,112,113,114,115,116,117,118,119,120,121,122,123,124,125,126,127,128,129,130,131,132,133,134,135,136,137,138,139,140,141,142,143,144,145,146,147,148,149,150,151,152,153,154,155,156,157,158,159,160,161,162,163,164,165,166,167,168,169,170,171,172,173,174,175,176,177,178,179,180,181,182,183,184,185,186,187,188,189,190,191,192,193,194,195,196,197,198,199,200,201,202,203,204,205,206,207,208,209,210,211,212,213,214,215,216,217,218,219,220,221,222,223,224,225,226,227,228,229,230,231,232,233,234,235,236,237,238,239,240,241,242,243,244,245,246,247,248,249,250,251,252,253,254,255,256,257,258,259,260,261,262,263,264,265,266,267,268,269,270,271,272,273,274,275,276,277,278,279,280,281,282,283,284,285,286,287,288,289,290,291,292,293,294,295,296,297,298,299,300,301,302,303,304,305,306,307,308,309,310,311,312,313,314,315,316,317,318,319,320,321,322,323,324,325,326,327,328,329,330,331,332,333,334,335,336,337,338,339,340,341,342,343,344,345,346,347,348,349,350,351,352,353,354,355,356,357,358,359,360,361,362,363,364,365,366,367,368,369,370,371,372,373,374,375,376,377,378,379,380,381,382,383,384,385,386,387,388,389,390,391,392,393,394,395,396,397,398,399,400,401,402,403,404,405,406,407,408,409,410,411,412,413,414,415,416,417,418,419,420,421,422,423,424,425,426,427,428,429,430,431,432,433,434,435,436,437,438,439,440,441,442,443,444,445,446,447,448,449,450,451,452,453,454,455,456,457,458,459,460,461,462,463,464,465,466,467,468,469,470,471,472,473,474,475,476,477,478,479,480,481,482,483,484,485,486,487,488,489,490,491,492,493,494,495,496,497,498,499,500,501,502,503,504,505,506,507,508,509,510,511,512,513,514,515,516,517,518,519,520,521,522,523,524,525,526,527,528,529,530,531,532,533,534,535,536,537,538,539,540,541,542,543,544,545,546,547,548,549,550,551,552,553,554,555,556,557,558,559,560,561,562,563,564,565,566,567,568,569,570,571,572,573,574,575,576,577,578,579,580,581,582,583,584,585,586,587,588,589,590,591,592,593,594,595,596,597,598,599,600,601,602,603,604,605,606,607,608,609,610,611,612,613,614,615,616,617,618,619,620,621,622,623,624,625,626,627,628,629,630,631,632,633,634,635,636,637,638,639,640,641,642,643,644,645,646,647,648,649,650,651,652,653,654,655,656,657,658,659,660,661,662,663,664,665,666,667,668,669,670,671,672,673,674,675,676,677,678,679,680,681,682,683,684,685,686,687,688,689,690,691,692,693,694,695,696,697,698,699,700,701,702,703,704,705,706,707,708,709,710,711,712,713,714,715,716,717,718,719,720,721,722,723,724,725,726,727,728,729,730,731,732,733,734,735,736,737,738,739,740,741,742,743,744,745,746,747,748,749,750,751,752,753,754,755,756,757,758,759,760,761,762,763,764,765,766,767,768,769,770,771,772,773,774,775,776,777,778,779,780,781,782,783,784,785,786,787,788,789,790,791,792,793,794,795,796,797,798,799,800,801,802,803,804,805,806,807,808,809,810,811,812,813,814,815,816,817,818,819,820,821,822,823,824,825,826,827,828,829,830,831,832,833,834,835,836,837,838,839,840,841,842,843,844,845,846,847,848,849,850,851,852,853,854,855,856,857,858,859,860,861,862,863,864,865,866,867,868,869,870,871,872,873,874,875,876,877,878,879,880,881,882,883,884,885,886,887,888,889,890,891,892,893,894,895,896,897,898,899,900,901,902,903,904,905,906,907,908,909,910,911,912,913,914,915,916,917,918,919,920,921,922,923,924,925,926,927,928,929,930,931,932,933,934,935,936,937,938,939,940,941,942,943,944,945,946,947,948,949,950,951,952,953,954,955,956,957,958,959,960,961,962,963,964,965,966,967,968,969,970,971,972,973,974,975,976,977,978,979,980,981,982,983,984,985,986,987,988,989,990,991,992,993,994,995,996,997,998,999,1000,1001,1002,1003,1004,1005,1006,1007,1008,1009,1010,1011,1012,1013,1014,1015,1016,1017,1018,1019,1020,1021,1022,1023,1024,1025,1026,1027,1028,1029,1030,1031,1032,1033,1034,1035,1036,1037,1038,1039,1040,1041,1042,1043,1044,1045,1046,1047,1048,1049,1050,1051,1052,1053,1054,1055,1056,1057,1058,1059,1060,1061,1062,1063,1064,1065,1066,1067,1068,1069,1070,1071,1072,1073,1074,1075,1076,1077,1078,1079,1080,1081,1082,1083,1084,1085,1086,1087,1088,1089,1090,1091,1092,1093,1094,1095,1096,1097,1098,1099,1100,1101,1102,1103,1104,1105,1106,1107,1108,1109,1110,1111,1112,1113,1114,1115,1116,1117,1118,1119,1120,1121,1122,1123,1124,1125,1126,1127,1128,1129,1130,1131,1132,1133,1134,1135,1136,1137,1138,1139,1140,1141,1142,1143,1144,1145,1146,1147,1148,1149,1150,1151,1152,1153,1154,1155,1156,1157,1158,1159,1160,1161,1162,1163,1164,1165,1166,1167,1168,1169,1170,1171,1172,1173,1174,1175,1176,1177,1178,1179,1180,1181,1182,1183,1184,1185,1186,1187,1188,1189,1190,1191,1192,1193,1194,1195,1196,1197,1198,1199,1200,1201,1202,1203,1204,1205,1206,1207,1208,1209,1210,1211,1212,1213,1214,1215,1216,1217,1218,1219,1220,1221,1222,1223,1224,1225,1226,1227,1228,1229,1230,1231,1232,1233,1234,1235,1236,1237,1238,1239,1240,1241,1242,1243,1244,1245,1246,1247,1248,1249,1250,1251,1252,1253,1254,1255,1256,1257,1258,1259,1260,1261,1262,1263,1264,1265,1266,1267,1268,1269,1270,1271,1272,1273,1274,1275,1276,1277,1278,1279,1280,1281,1282,1283,1284,1285,1286,1287,1288,1289,1290,1291,1292,1293,1294,1295,1296,1297,1298,1299,1300,1301,1302,1303,1304,1305,1306,1307,1308,1309,1310,1311,1312,1313,1314,1315,1316,1317,1318,1319,1320,1321,1322,1323,1324,1325,1326,1327,1328,1329,1330,1331,1332,1333,1334,1335,1336,1337,1338,1339,1340,1341,1342,1343,1344,1345,1346,1347,1348,1349,1350,1351,1352,1353,1354,1355,1356,1357,1358,1359,1360,1361,1362,1363,1364,1365,1366,1367,1368,1369,1370,1371,1372,1373,1374,1375,1376,1377,1378,1379,1380,1381,1382,1383,1384,1385,1386,1387,1388,1389,1390,1391,1392,1393,1394,1395,1396,1397,1398,1399,1400,1401,1402,1403,1404,1405,1406,1407,1408,1409,1410,1411,1412,1413,1414,1415,1416,1417,1418,1419,1420,1421,1422,1423,1424,1425,1426,1427,1428,1429,1430,1431,1432,1433,1434,1435,1436,1437,1438,1439,1440,1441,1442,1443,1444,1445,1446,1447,1448,1449,1450,1451,1452,1453,1454,1455,1456,1457,1458,1459,1460,1461,1462,1463,1464,1465,1466,1467,1468,1469,1470,1471,1472,1473,1474,1475,1476,1477,1478,1479,1480,1481,1482,1483,1484,1485,1486,1487,1488,1489,1490,1491,1492,1493,1494,1495,1496,1497,1498,1499,1500,1501,1502,1503,1504,1505,1506,1507,1508,1509,1510,1511,1512,1513,1514,1515,1516,1517,1518,1519,1520,1521,1522,1523,1524,1525,1526,1527,1528,1529,1530,1531,1532,1533,1534,1535,1536,1537,1538,1539,1540,1541,1542,1543,1544,1545,1546,1547,1548,1549,1550,1551,1552,1553,1554,1555,1556,1557,1558,1559,1560,1561,1562,1563,1564,1565,1566,1567,1568,1569,1570,1571,1572,1573,1574,1575,1576,1577,1578,1579,1580,1581,1582,1583,1584,1585,1586,1587,1588,1589,1590,1591,1592,1593,1594,1595,1596,1597,1598,1599,1600,1601,1602,1603,1604,1605,1606,1607,1608,1609,1610,1611,1612,1613,1614,1615,1616,1617,1618,1619,1620,1621,1622,1623,1624,1625,1626,1627,1628,1629,1630,1631,1632,1633,1634,1635,1636,1637,1638,1639,1640,1641,1642,1643,1644,1645,1646,1647,1648,1649,1650,1651,1652,1653,1654,1655,1656,1657,1658,1659,1660,1661,1662,1663,1664,1665,1666,1667,1668,1669,1670,1671,1672,1673,1674,1675,1676,1677,1678,1679,1680,1681,1682,1683,1684,1685,1686,1687,1688,1689,1690,1691,1692,1693,1694,1695,1696,1697,1698,1699,1700,1701,1702,1703,1704,1705,1706,1707,1708,1709,1710,1711,1712,1713,1714,1715,1716,1717,1718,1719,1720,1721,1722,1723,1724,1725,1726,1727,1728,1729,1730,1731,1732,1733,1734,1735,1736,1737,1738,1739,1740,1741,1742,1743,1744,1745,1746,1747,1748,1749,1750,1751,1752,1753,1754,1755,1756,1757,1758,1759,1760,1761,1762,1763,1764,1765,1766,1767,1768,1769,1770,1771,1772,1773,1774,1775,1776,1777,1778,1779,1780,1781,1782,1783,1784,1785,1786,1787,1788,1789,1790,1791,1792,1793,1794,1795,1796,1797,1798,1799,1800,1801,1802,1803,1804,1805,1806,1807,1808,1809,1810,1811,1812,1813,1814,1815,1816,1817,1818,1819,1820,1821,1822,1823,1824,1825,1826,1827,1828,1829,1830,1831,1832,1833,1834,1835,1836,1837,1838,1839,1840,1841,1842,1843,1844,1845,1846,1847,1848,1849,1850,1851,1852,1853,1854,1855,1856,1857,1858,1859,1860,1861,1862,1863,1864,1865,1866,1867,1868,1869,1870,1871,1872,1873,1874,1875,1876,1877,1878,1879,1880,1881,1882,1883,1884,1885,1886,1887,1888,1889,1890,1891,1892,1893,1894,1895,1896,1897,1898,1899,1900,1901,1902,1903,1904,1905,1906,1907,1908,1909,1910,1911,1912,1913,1914,1915,1916,1917,1918,1919,1920,1921,1922,1923,1924,1925,1926,1927,1928,1929,1930,1931,1932,1933,1934,1935,1936,1937,1938,1939,1940,1941,1942,1943,1944,1945,1946,1947,1948,1949,1950,1951,1952,1953,1954,1955,1956,1957,1958,1959,1960,1961,1962,1963,1964,1965,1966,1967,1968,1969,1970,1971,1972,1973,1974,1975,1976,1977,1978,1979,1980,1981,1982,1983,1984,1985,1986,1987,1988,1989,1990,1991,1992,1993,1994,1995,1996,1997,1998,1999,2000],"tree_info":[0,0,0,0,0,0,0,0,0,0,0,0,0,0,0,0,0,0,0,0,0,0,0,0,0,0,0,0,0,0,0,0,0,0,0,0,0,0,0,0,0,0,0,0,0,0,0,0,0,0,0,0,0,0,0,0,0,0,0,0,0,0,0,0,0,0,0,0,0,0,0,0,0,0,0,0,0,0,0,0,0,0,0,0,0,0,0,0,0,0,0,0,0,0,0,0,0,0,0,0,0,0,0,0,0,0,0,0,0,0,0,0,0,0,0,0,0,0,0,0,0,0,0,0,0,0,0,0,0,0,0,0,0,0,0,0,0,0,0,0,0,0,0,0,0,0,0,0,0,0,0,0,0,0,0,0,0,0,0,0,0,0,0,0,0,0,0,0,0,0,0,0,0,0,0,0,0,0,0,0,0,0,0,0,0,0,0,0,0,0,0,0,0,0,0,0,0,0,0,0,0,0,0,0,0,0,0,0,0,0,0,0,0,0,0,0,0,0,0,0,0,0,0,0,0,0,0,0,0,0,0,0,0,0,0,0,0,0,0,0,0,0,0,0,0,0,0,0,0,0,0,0,0,0,0,0,0,0,0,0,0,0,0,0,0,0,0,0,0,0,0,0,0,0,0,0,0,0,0,0,0,0,0,0,0,0,0,0,0,0,0,0,0,0,0,0,0,0,0,0,0,0,0,0,0,0,0,0,0,0,0,0,0,0,0,0,0,0,0,0,0,0,0,0,0,0,0,0,0,0,0,0,0,0,0,0,0,0,0,0,0,0,0,0,0,0,0,0,0,0,0,0,0,0,0,0,0,0,0,0,0,0,0,0,0,0,0,0,0,0,0,0,0,0,0,0,0,0,0,0,0,0,0,0,0,0,0,0,0,0,0,0,0,0,0,0,0,0,0,0,0,0,0,0,0,0,0,0,0,0,0,0,0,0,0,0,0,0,0,0,0,0,0,0,0,0,0,0,0,0,0,0,0,0,0,0,0,0,0,0,0,0,0,0,0,0,0,0,0,0,0,0,0,0,0,0,0,0,0,0,0,0,0,0,0,0,0,0,0,0,0,0,0,0,0,0,0,0,0,0,0,0,0,0,0,0,0,0,0,0,0,0,0,0,0,0,0,0,0,0,0,0,0,0,0,0,0,0,0,0,0,0,0,0,0,0,0,0,0,0,0,0,0,0,0,0,0,0,0,0,0,0,0,0,0,0,0,0,0,0,0,0,0,0,0,0,0,0,0,0,0,0,0,0,0,0,0,0,0,0,0,0,0,0,0,0,0,0,0,0,0,0,0,0,0,0,0,0,0,0,0,0,0,0,0,0,0,0,0,0,0,0,0,0,0,0,0,0,0,0,0,0,0,0,0,0,0,0,0,0,0,0,0,0,0,0,0,0,0,0,0,0,0,0,0,0,0,0,0,0,0,0,0,0,0,0,0,0,0,0,0,0,0,0,0,0,0,0,0,0,0,0,0,0,0,0,0,0,0,0,0,0,0,0,0,0,0,0,0,0,0,0,0,0,0,0,0,0,0,0,0,0,0,0,0,0,0,0,0,0,0,0,0,0,0,0,0,0,0,0,0,0,0,0,0,0,0,0,0,0,0,0,0,0,0,0,0,0,0,0,0,0,0,0,0,0,0,0,0,0,0,0,0,0,0,0,0,0,0,0,0,0,0,0,0,0,0,0,0,0,0,0,0,0,0,0,0,0,0,0,0,0,0,0,0,0,0,0,0,0,0,0,0,0,0,0,0,0,0,0,0,0,0,0,0,0,0,0,0,0,0,0,0,0,0,0,0,0,0,0,0,0,0,0,0,0,0,0,0,0,0,0,0,0,0,0,0,0,0,0,0,0,0,0,0,0,0,0,0,0,0,0,0,0,0,0,0,0,0,0,0,0,0,0,0,0,0,0,0,0,0,0,0,0,0,0,0,0,0,0,0,0,0,0,0,0,0,0,0,0,0,0,0,0,0,0,0,0,0,0,0,0,0,0,0,0,0,0,0,0,0,0,0,0,0,0,0,0,0,0,0,0,0,0,0,0,0,0,0,0,0,0,0,0,0,0,0,0,0,0,0,0,0,0,0,0,0,0,0,0,0,0,0,0,0,0,0,0,0,0,0,0,0,0,0,0,0,0,0,0,0,0,0,0,0,0,0,0,0,0,0,0,0,0,0,0,0,0,0,0,0,0,0,0,0,0,0,0,0,0,0,0,0,0,0,0,0,0,0,0,0,0,0,0,0,0,0,0,0,0,0,0,0,0,0,0,0,0,0,0,0,0,0,0,0,0,0,0,0,0,0,0,0,0,0,0,0,0,0,0,0,0,0,0,0,0,0,0,0,0,0,0,0,0,0,0,0,0,0,0,0,0,0,0,0,0,0,0,0,0,0,0,0,0,0,0,0,0,0,0,0,0,0,0,0,0,0,0,0,0,0,0,0,0,0,0,0,0,0,0,0,0,0,0,0,0,0,0,0,0,0,0,0,0,0,0,0,0,0,0,0,0,0,0,0,0,0,0,0,0,0,0,0,0,0,0,0,0,0,0,0,0,0,0,0,0,0,0,0,0,0,0,0,0,0,0,0,0,0,0,0,0,0,0,0,0,0,0,0,0,0,0,0,0,0,0,0,0,0,0,0,0,0,0,0,0,0,0,0,0,0,0,0,0,0,0,0,0,0,0,0,0,0,0,0,0,0,0,0,0,0,0,0,0,0,0,0,0,0,0,0,0,0,0,0,0,0,0,0,0,0,0,0,0,0,0,0,0,0,0,0,0,0,0,0,0,0,0,0,0,0,0,0,0,0,0,0,0,0,0,0,0,0,0,0,0,0,0,0,0,0,0,0,0,0,0,0,0,0,0,0,0,0,0,0,0,0,0,0,0,0,0,0,0,0,0,0,0,0,0,0,0,0,0,0,0,0,0,0,0,0,0,0,0,0,0,0,0,0,0,0,0,0,0,0,0,0,0,0,0,0,0,0,0,0,0,0,0,0,0,0,0,0,0,0,0,0,0,0,0,0,0,0,0,0,0,0,0,0,0,0,0,0,0,0,0,0,0,0,0,0,0,0,0,0,0,0,0,0,0,0,0,0,0,0,0,0,0,0,0,0,0,0,0,0,0,0,0,0,0,0,0,0,0,0,0,0,0,0,0,0,0,0,0,0,0,0,0,0,0,0,0,0,0,0,0,0,0,0,0,0,0,0,0,0,0,0,0,0,0,0,0,0,0,0,0,0,0,0,0,0,0,0,0,0,0,0,0,0,0,0,0,0,0,0,0,0,0,0,0,0,0,0,0,0,0,0,0,0,0,0,0,0,0,0,0,0,0,0,0,0,0,0,0,0,0,0,0,0,0,0,0,0,0,0,0,0,0,0,0,0,0,0,0,0,0,0,0,0,0,0,0,0,0,0,0,0,0,0,0,0,0,0,0,0,0,0,0,0,0,0,0,0,0,0,0,0,0,0,0,0,0,0,0,0,0,0,0,0,0,0,0,0,0,0,0,0,0,0,0,0,0,0,0,0,0,0,0,0,0,0,0,0,0,0,0,0,0,0,0,0,0,0,0,0,0,0,0,0,0,0,0,0,0,0,0,0,0,0,0,0,0,0,0,0,0,0,0,0,0,0,0,0,0,0,0,0,0,0,0,0,0,0,0,0,0,0,0,0,0,0,0,0,0,0,0,0,0,0,0,0,0,0,0,0,0,0,0,0,0,0,0,0,0,0,0,0,0,0,0,0,0,0,0,0,0,0,0,0,0,0,0,0,0,0,0,0,0,0,0,0,0,0,0,0,0,0,0,0,0,0,0,0,0,0,0,0,0,0,0,0,0,0,0,0,0,0,0,0,0,0,0,0,0,0,0,0,0,0,0,0,0,0,0,0,0,0,0,0,0,0,0,0,0,0,0,0,0,0,0,0,0,0,0,0,0,0,0,0,0,0,0,0,0,0,0,0,0,0,0,0,0,0,0,0,0,0,0,0,0,0,0,0,0,0,0,0,0,0,0,0,0,0,0,0,0,0,0,0,0,0,0,0,0,0,0,0,0,0,0,0,0,0,0,0,0,0,0,0,0,0,0,0,0,0,0,0,0,0,0,0,0,0,0,0,0,0,0,0,0,0,0,0,0,0,0,0,0,0,0,0,0,0,0,0,0,0,0,0,0,0,0,0,0,0,0,0,0,0,0,0,0,0,0,0,0,0,0,0,0,0,0,0,0,0,0,0,0,0,0,0,0,0,0,0,0,0,0,0,0,0,0,0,0,0,0,0,0,0,0,0,0,0,0,0,0,0,0,0,0,0,0,0,0,0,0,0,0,0,0,0,0,0,0,0,0,0,0,0,0,0,0,0,0,0,0,0,0,0,0,0,0,0,0,0,0,0,0,0,0,0,0,0,0,0,0,0,0,0,0,0,0,0,0,0,0,0,0,0,0,0,0,0,0,0,0,0,0,0,0,0,0,0,0,0,0,0,0,0,0,0,0,0,0,0,0,0,0,0,0],"trees":[{"base_weights":[-4.8141493E-3,-1.2119066E0,8.039502E-1,-3.2472253E-1,-1.3160009E0,1.8273492E0,4.1337222E-1,-1.298768E-2,2.7076793E-3,-1.8297713E-2,-9.439086E-3,-5.8390484E-3,1.901018E-2,-3.607615E-3,6.8398463E-3],"categories":[],"categories_nodes":[],"categories_segments":[],"categories_sizes":[],"default_left":[0,0,0,0,0,0,0,0,0,0,0,0,0,0,0],"id":0,"left_children":[1,3,5,7,9,11,13,-1,-1,-1,-1,-1,-1,-1,-1],"loss_changes":[3.5681204E3,1.313435E2,8.6821765E2,9.4824715E1,2.4148584E2,1.1181311E2,3.335891E2,0E0,0E0,0E0,0E0,0E0,0E0,0E0,0E0],"parents":[2147483647,0,0,1,1,2,2,3,3,4,4,5,5,6,6],"right_children":[2,4,6,8,10,12,14,-1,-1,-1,-1,-1,-1,-1,-1],"split_conditions":[2.09E2,1.35E2,5.38E2,1E0,1E0,1E0,1E0,-1.298768E-2,2.7076793E-3,-1.8297713E-2,-9.439086E-3,-5.8390484E-3,1.901018E-2,-3.607615E-3,6.8398463E-3],"split_indices":[2,3,5,1,1,1,1,0,0,0,0,0,0,0,0],"split_type":[0,0,0,0,0,0,0,0,0,0,0,0,0,0,0],"sum_hessian":[3.6500813E3,1.4650095E3,2.1850718E3,1.5672389E2,1.3082856E3,6.001281E2,1.5849436E3,5.9839996E1,9.6883896E1,5.4397565E2,7.6430994E2,1.6576086E1,5.83552E2,4.0844864E2,1.176495E3],"tree_param":{"num_deleted":"0","num_feature":"10","num_nodes":"15","size_leaf_vector":"1"}},{"base_weights":[8.401143E-3,1.108096E0,-2.885938E-1,-1.6270708E0,1.8157066E0,4.0285158E-1,-1.7132522E0,-3.4193466E-3,-1.8057851E-2,1.887983E-2,5.2195434E-3,-5.6943027E-3,9.899196E-3,-1.9033829E-2,-1.4447342E-2],"categories":[],"categories_nodes":[],"categories_segments":[],"categories_sizes":[],"default_left":[0,0,0,0,0,0,0,0,0,0,0,0,0,0,0],"id":1,"left_children":[1,3,5,7,9,11,13,-1,-1,-1,-1,-1,-1,-1,-1],"loss_changes":[1.1917922E3,1.5087668E3,2.8289624E3,3.1224304E1,5.1022095E1,1.1043953E3,3.5711914E1,0E0,0E0,0E0,0E0,0E0,0E0,0E0,0E0],"parents":[2147483647,0,0,1,1,2,2,3,3,4,4,5,5,6,6],"right_children":[2,4,6,8,10,12,14,-1,-1,-1,-1,-1,-1,-1,-1],"split_conditions":[5.38E2,1.42E2,8.74E3,3.2E1,3.81E2,2.09E2,1.69E2,-3.4193466E-3,-1.8057851E-2,1.887983E-2,5.2195434E-3,-5.6943027E-3,9.899196E-3,-1.9033829E-2,-1.4447342E-2],"split_indices":[5,2,8,2,2,2,2,0,0,0,0,0,0,0,0],"split_type":[0,0,0,0,0,0,0,0,0,0,0,0,0,0,0],"sum_hessian":[3.640069E3,7.743021E2,2.865767E3,1.5803098E2,6.162711E2,1.9293868E3,9.363802E2,2.1370823E1,1.3666016E2,5.813302E2,3.4940952E1,7.251205E2,1.2042664E3,5.3671857E2,3.9966162E2],"tree_param":{"num_deleted":"0","num_feature":"10","num_nodes":"15","size_leaf_vector":"1"}},{"base_weights":[-4.077778E-3,-1.2086614E0,4.7499454E-1,-1.7463577E0,-4.1322416E-1,-8.040021E-1,1.0700088E0,-1.4335415E-2,-1.8302087E-2,-9.063989E-3,8.34228E-3,-1.0818147E-2,1.7786017E-2,1.2675104E-2,6.380665E-4],"categories":[],"categories_nodes":[],"categories_segments":[],"categories_sizes":[],"default_left":[0,0,0,0,0,0,0,0,0,0,0,0,0,0,0],"id":2,"left_children":[1,3,5,7,9,11,13,-1,-1,-1,-1,-1,-1,-1,-1],"loss_changes":[2.0976267E3,4.368003E2,1.9790862E3,4.3638916E0,2.6094714E2,5.942583E2,3.4986975E2,0E0,0E0,0E0,0E0,0E0,0E0,0E0,0E0],"parents":[2147483647,0,0,1,1,2,2,3,3,4,4,5,5,6,6],"right_children":[2,4,6,8,10,12,14,-1,-1,-1,-1,-1,-1,-1,-1],"split_conditions":[1E0,2.09E2,1.8E2,3E0,3.79E2,1.535E3,3.78E2,-1.4335415E-2,-1.8302087E-2,-9.063989E-3,8.34228E-3,-1.0818147E-2,1.7786017E-2,1.2675104E-2,6.380665E-4],"split_indices":[1,2,2,0,3,7,3,0,0,0,0,0,0,0,0],"split_type":[0,0,0,0,0,0,0,0,0,0,0,0,0,0,0],"sum_hessian":[3.6283484E3,1.032742E3,2.5956064E3,6.1327655E2,4.1946533E2,8.228366E2,1.7727698E3,1.4233273E2,4.7094385E2,3.021584E2,1.1730694E2,7.446687E2,7.816793E1,1.479801E3,2.9296872E2],"tree_param":{"num_deleted":"0","num_feature":"10","num_nodes":"15","size_leaf_vector":"1"}},{"base_weights":[4.3316144E-3,-1.1862379E0,7.629532E-1,1.3716289E-2,-1.20586E0,1.7961804E0,3.761145E-1,-4.6915817E-4,-1.4414464E-2,1.8543817E-2,6.8584997E-3,2.325834E-3,1.1359101E-2],"categories":[],"categories_nodes":[],"categories_segments":[],"categories_sizes":[],"default_left":[0,0,0,0,0,0,0,0,0,0,0,0,0],"id":3,"left_children":[1,3,5,-1,7,9,11,-1,-1,-1,-1,-1,-1],"loss_changes":[3.2999302E3,7.4313965E1,8.8691187E2,0E0,3.8250366E2,3.1564087E1,1.7436456E2,0E0,0E0,0E0,0E0,0E0,0E0],"parents":[2147483647,0,0,1,1,2,2,4,4,5,5,6,6],"right_children":[2,4,6,-1,8,10,12,-1,-1,-1,-1,-1,-1],"split_conditions":[1.86E2,2.2E1,5.38E2,1.3716289E-2,4.2E1,3.81E2,2.2E1,-4.6915817E-4,-1.4414464E-2,1.8543817E-2,6.8584997E-3,2.325834E-3,1.1359101E-2],"split_indices":[2,5,5,0,2,2,0,0,0,0,0,0,0],"split_type":[0,0,0,0,0,0,0,0,0,0,0,0,0],"sum_hessian":[3.650565E3,1.4193284E3,2.2312368E3,8.9801235E0,1.4103483E3,6.044157E2,1.626821E3,2.4009792E2,1.1702504E3,5.7132635E2,3.3089348E1,1.3727439E3,2.5407709E2],"tree_param":{"num_deleted":"0","num_feature":"10","num_nodes":"13","size_leaf_vector":"1"}},{"base_weights":[1.0142526E-2,6.425974E-1,-1.6665645E0,-6.13113E-1,1.2212758E0,-1.1417915E0,-1.906693E-2,1.9612415E-2,-9.148204E-3,1.7514689E-2,9.46618E-3,-8.477231E-3,-1.584881E-2],"categories":[],"categories_nodes":[],"categories_segments":[],"categories_sizes":[],"default_left":[0,0,0,0,0,0,0,0,0,0,0,0,0],"id":4,"left_children":[1,3,5,7,9,11,-1,-1,-1,-1,-1,-1,-1],"loss_changes":[3.8669478E3,1.9283726E3,1.1536279E2,6.50994E2,2.5570996E2,3.427832E1,0E0,0E0,0E0,0E0,0E0,0E0,0E0],"parents":[2147483647,0,0,1,1,2,2,3,3,4,4,5,5],"right_children":[2,4,6,8,10,12,-1,-1,-1,-1,-1,-1,-1],"split_conditions":[8.764E3,2.09E2,1.2108E4,4E0,1.18E3,1.184E3,-1.906693E-2,1.9612415E-2,-9.148204E-3,1.7514689E-2,9.46618E-3,-8.477231E-3,-1.584881E-2],"split_indices":[8,2,8,8,8,9,0,0,0,0,0,0,0],"split_type":[0,0,0,0,0,0,0,0,0,0,0,0,0],"sum_hessian":[3.644457E3,2.6480408E3,9.964162E2,8.342262E2,1.8138146E3,3.190369E2,6.773793E2,8.5663376E1,7.4856287E2,6.1281476E2,1.2009998E3,1.9798137E2,1.2105554E2],"tree_param":{"num_deleted":"0","num_feature":"10","num_nodes":"13","size_leaf_vector":"1"}},{"base_weights":[7.7329967E-3,-1.1382977E0,7.904584E-1,-2.7190527E-2,-1.3584057E0,4.1831708E-1,1.6140918E0,-6.2656263E-3,8.043434E-3,-1.8272862E-2,-8.836199E-3,-2.7576867E-3,6.652301E-3,-1.2737259E-2,1.7927155E-2],"categories":[],"categories_nodes":[],"categories_segments":[],"categories_sizes":[],"default_left":[0,0,0,0,0,0,0,0,0,0,0,0,0,0,0],"id":5,"left_children":[1,3,5,7,9,11,13,-1,-1,-1,-1,-1,-1,-1,-1],"loss_changes":[3.2876404E3,3.6072937E2,6.6252185E2,1.2492661E2,2.6723438E2,2.5913336E2,3.542151E2,0E0,0E0,0E0,0E0,0E0,0E0,0E0,0E0],"parents":[2147483647,0,0,1,1,2,2,3,3,4,4,5,5,6,6],"right_children":[2,4,6,8,10,12,14,-1,-1,-1,-1,-1,-1,-1,-1],"split_conditions":[2.09E2,4.2E1,5.3E1,2.5E1,6.9E1,1E0,1E0,-6.2656263E-3,8.043434E-3,-1.8272862E-2,-8.836199E-3,-2.7576867E-3,6.652301E-3,-1.2737259E-2,1.7927155E-2],"split_indices":[2,2,6,2,2,1,1,0,0,0,0,0,0,0,0],"split_type":[0,0,0,0,0,0,0,0,0,0,0,0,0,0,0],"sum_hessian":[3.6618086E3,1.4846249E3,2.1771836E3,2.4734724E2,1.2372776E3,1.5033643E3,6.7381934E2,1.4542365E2,1.0192361E2,6.1752435E2,6.1975323E2,3.9228802E2,1.1110763E3,3.7884304E1,6.35935E2],"tree_param":{"num_deleted":"0","num_feature":"10","num_nodes":"15","size_leaf_vector":"1"}},{"base_weights":[-7.103661E-3,-1.1408149E0,7.62117E-1,-3.319759E-2,-1.3397262E0,1.7442464E0,3.8814694E-1,-4.096466E-3,1.6769647E-3,-1.8767234E-2,-9.501098E-3,-4.1717696E-3,1.8074932E-2,-3.8039573E-3,6.578428E-3],"categories":[],"categories_nodes":[],"categories_segments":[],"categories_sizes":[],"default_left":[0,0,0,0,0,0,0,0,0,0,0,0,0,0,0],"id":6,"left_children":[1,3,5,7,9,11,13,-1,-1,-1,-1,-1,-1,-1,-1],"loss_changes":[3.1413774E3,3.1812512E2,7.820365E2,1.7665335E1,2.4884277E2,8.4854126E1,3.2381586E2,0E0,0E0,0E0,0E0,0E0,0E0,0E0,0E0],"parents":[2147483647,0,0,1,1,2,2,3,3,4,4,5,5,6,6],"right_children":[2,4,6,8,10,12,14,-1,-1,-1,-1,-1,-1,-1,-1],"split_conditions":[2.09E2,3.2E1,5.38E2,1E0,1E0,1E0,1E0,-4.096466E-3,1.6769647E-3,-1.8767234E-2,-9.501098E-3,-4.1717696E-3,1.8074932E-2,-3.8039573E-3,6.578428E-3],"split_indices":[2,2,5,1,1,1,1,0,0,0,0,0,0,0,0],"split_type":[0,0,0,0,0,0,0,0,0,0,0,0,0,0,0],"sum_hessian":[3.5973284E3,1.4548057E3,2.1425227E3,2.2337166E2,1.231434E3,5.873455E2,1.5551772E3,8.046608E1,1.4290558E2,5.124171E2,7.190169E2,1.5480897E1,5.718646E2,4.0183777E2,1.1533394E3],"tree_param":{"num_deleted":"0","num_feature":"10","num_nodes":"15","size_leaf_vector":"1"}},{"base_weights":[9.728538E-3,-1.1111691E0,7.489703E-1,-1.687965E0,-6.9739604E-1,-4.2907655E-1,1.0361638E0,3.453758E-4,-1.8466081E-2,3.003064E-3,-9.164075E-3,2.2422522E-3,-9.969843E-3,1.3428233E-2,-1.9227006E-3],"categories":[],"categories_nodes":[],"categories_segments":[],"categories_sizes":[],"default_left":[0,0,0,0,0,0,0,0,0,0,0,0,0,0,0],"id":7,"left_children":[1,3,5,7,9,11,13,-1,-1,-1,-1,-1,-1,-1,-1],"loss_changes":[3.0233833E3,3.387749E2,7.465123E2,1.6824927E2,1.8737283E2,1.6201529E2,6.699541E2,0E0,0E0,0E0,0E0,0E0,0E0,0E0,0E0],"parents":[2147483647,0,0,1,1,2,2,3,3,4,4,5,5,6,6],"right_children":[2,4,6,8,10,12,14,-1,-1,-1,-1,-1,-1,-1,-1],"split_conditions":[2.09E2,1E0,1E0,2.4E1,4.2E1,3E0,1.188E3,3.453758E-4,-1.8466081E-2,3.003064E-3,-9.164075E-3,2.2422522E-3,-9.969843E-3,1.3428233E-2,-1.9227006E-3],"split_indices":[2,1,1,2,2,0,9,0,0,0,0,0,0,0,0],"split_type":[0,0,0,0,0,0,0,0,0,0,0,0,0,0,0],"sum_hessian":[3.6455874E3,1.4473252E3,2.1982622E3,5.999741E2,8.47351E2,4.2931033E2,1.7689518E3,4.966657E1,5.5030756E2,1.5074786E2,6.9660315E2,1.9857037E2,2.3073996E2,1.4167292E3,3.5222256E2],"tree_param":{"num_deleted":"0","num_feature":"10","num_nodes":"15","size_leaf_vector":"1"}},{"base_weights":[-1.3149197E-2,-1.1316168E0,4.226829E-1,-1.4909415E0,-3.9177427E-1,1.6324942E0,4.77964E-2,-1.3490014E-2,-1.7863026E-2,-1.271222E-2,2.8688211E-3,1.0653653E-2,1.7893663E-2,1.8658658E-2,-6.163936E-5],"categories":[],"categories_nodes":[],"categories_segments":[],"categories_sizes":[],"default_left":[0,0,0,0,0,0,0,0,0,0,0,0,0,0,0],"id":8,"left_children":[1,3,5,7,9,11,13,-1,-1,-1,-1,-1,-1,-1,-1],"loss_changes":[1.7641044E3,2.649591E2,1.1760732E3,1.745227E1,2.0348663E2,4.5099E1,1.988598E2,0E0,0E0,0E0,0E0,0E0,0E0,0E0,0E0],"parents":[2147483647,0,0,1,1,2,2,3,3,4,4,5,5,6,6],"right_children":[2,4,6,8,10,12,14,-1,-1,-1,-1,-1,-1,-1,-1],"split_conditions":[1E0,3.84E2,5.06E2,5.3E1,2.8E1,3.12E2,5.7E1,-1.3490014E-2,-1.7863026E-2,-1.271222E-2,2.8688211E-3,1.0653653E-2,1.7893663E-2,1.8658658E-2,-6.163936E-5],"split_indices":[1,9,5,6,4,5,4,0,0,0,0,0,0,0,0],"split_type":[0,0,0,0,0,0,0,0,0,0,0,0,0,0,0],"sum_hessian":[3.612071E3,1.01323114E3,2.5988398E3,6.788133E2,3.3441785E2,6.1194934E2,1.9868905E3,4.7057654E2,2.0823674E2,1.4618385E2,1.8823398E2,1.3873225E2,4.7321707E2,5.6403736E1,1.9304868E3],"tree_param":{"num_deleted":"0","num_feature":"10","num_nodes":"15","size_leaf_vector":"1"}},{"base_weights":[-2.4138486E-3,-1.109947E0,7.41246E-1,-1.2007732E0,6.311515E-1,1.0132185E0,-1.243453E-1,-2.5386857E-3,-1.3581724E-2,-1.6428215E-2,1.7218534E-2,-6.564237E-3,1.3134154E-2,-1.6706927E-2,3.7472178E-3],"categories":[],"categories_nodes":[],"categories_segments":[],"categories_sizes":[],"default_left":[0,0,0,0,0,0,0,0,0,0,0,0,0,0,0],"id":9,"left_children":[1,3,5,7,9,11,13,-1,-1,-1,-1,-1,-1,-1,-1],"loss_changes":[2.9852075E3,2.3301953E2,5.121393E2,2.0270154E2,1.8549222E2,8.3043274E2,4.0366016E2,0E0,0E0,0E0,0E0,0E0,0E0,0E0,0E0],"parents":[2147483647,0,0,1,1,2,2,3,3,4,4,5,5,6,6],"right_children":[2,4,6,8,10,12,14,-1,-1,-1,-1,-1,-1,-1,-1],"split_conditions":[2.09E2,1.828E3,1.188E3,3.8E1,1E0,1E0,1.444E3,-2.5386857E-3,-1.3581724E-2,-1.6428215E-2,1.7218534E-2,-6.564237E-3,1.3134154E-2,-1.6706927E-2,3.7472178E-3],"split_indices":[2,7,9,2,1,1,9,0,0,0,0,0,0,0,0],"split_type":[0,0,0,0,0,0,0,0,0,0,0,0,0,0,0],"sum_hessian":[3.619568E3,1.4547349E3,2.1648333E3,1.3842911E3,7.044368E1,1.6487563E3,5.160769E2,1.9986235E2,1.1844288E3,2.191261E1,4.8531067E1,2.4988797E2,1.3988684E3,1.257514E2,3.9032553E2],"tree_param":{"num_deleted":"0","num_feature":"10","num_nodes":"15","size_leaf_vector":"1"}},{"base_weights":[-1.2385622E-2,-1.0957905E0,7.224859E-1,-1.2154042E0,2.280643E-1,8.6304563E-1,1.5220585E-1,-2.0394728E-3,-1.3726081E-2,-1.835704E-3,9.592658E-3,1.6710171E-2,4.4876086E-3,-1.9197518E-2,5.6519774E-3],"categories":[],"categories_nodes":[],"categories_segments":[],"categories_sizes":[],"default_left":[0,0,0,0,0,0,0,0,0,0,0,0,0,0,0],"id":10,"left_children":[1,3,5,7,9,11,13,-1,-1,-1,-1,-1,-1,-1,-1],"loss_changes":[2.877045E3,2.3391064E2,1.7016882E2,2.0964197E2,3.8437744E1,5.7094727E2,3.6799237E2,0E0,0E0,0E0,0E0,0E0,0E0,0E0,0E0],"parents":[2147483647,0,0,1,1,2,2,3,3,4,4,5,5,6,6],"right_children":[2,4,6,8,10,12,14,-1,-1,-1,-1,-1,-1,-1,-1],"split_conditions":[2.09E2,1.648E3,3.78E2,3.8E1,1.935E3,5.38E2,3.79E2,-2.0394728E-3,-1.3726081E-2,-1.835704E-3,9.592658E-3,1.6710171E-2,4.4876086E-3,-1.9197518E-2,5.6519774E-3],"split_indices":[2,7,3,2,7,5,3,0,0,0,0,0,0,0,0],"split_type":[0,0,0,0,0,0,0,0,0,0,0,0,0,0,0],"sum_hessian":[3.60871E3,1.4591931E3,2.1495168E3,1.3398123E3,1.1938085E2,1.7208394E3,4.2867746E2,1.8255605E2,1.1572562E3,7.558976E1,4.3791084E1,5.7958716E2,1.1412522E3,6.9227486E1,3.5944998E2],"tree_param":{"num_deleted":"0","num_feature":"10","num_nodes":"15","size_leaf_vector":"1"}},{"base_weights":[9.228177E-3,6.3361096E-1,-1.6348284E0,-5.7112956E-1,1.1906239E0,-1.8635163E-2,-1.415913E0,1.9912753E-2,-8.659899E-3,1.6387615E-2,9.295193E-3,-8.874955E-3,-1.8156122E-2],"categories":[],"categories_nodes":[],"categories_segments":[],"categories_sizes":[],"default_left":[0,0,0,0,0,0,0,0,0,0,0,0,0],"id":11,"left_children":[1,3,5,7,9,-1,11,-1,-1,-1,-1,-1,-1],"loss_changes":[3.7054817E3,1.7597242E3,3.788867E1,6.2686316E2,2.0154199E2,0E0,1.0125293E2,0E0,0E0,0E0,0E0,0E0,0E0],"parents":[2147483647,0,0,1,1,2,2,3,3,4,4,6,6],"right_children":[2,4,6,8,10,-1,12,-1,-1,-1,-1,-1,-1],"split_conditions":[8.764E3,2.09E2,1E0,4E0,1.608E3,-1.8635163E-2,1.2108E4,1.9912753E-2,-8.659899E-3,1.6387615E-2,9.295193E-3,-8.874955E-3,-1.8156122E-2],"split_indices":[8,2,1,8,8,0,8,0,0,0,0,0,0],"split_type":[0,0,0,0,0,0,0,0,0,0,0,0,0],"sum_hessian":[3.6076814E3,2.6164478E3,9.912336E2,8.2609E2,1.7903578E3,4.729793E2,5.182543E2,8.3362366E1,7.4272766E2,6.524079E2,1.13795E3,2.2811807E2,2.901362E2],"tree_param":{"num_deleted":"0","num_feature":"10","num_nodes":"13","size_leaf_vector":"1"}},{"base_weights":[-1.283107E-2,-1.1099648E0,7.021535E-1,1.9706734E-2,-1.3068966E0,1.137422E0,-1.458655E0,-1.6068928E-2,-1.0548166E-2,1.6818505E-2,8.843293E-3,-1.5157215E-2,4.4322535E-3],"categories":[],"categories_nodes":[],"categories_segments":[],"categories_sizes":[],"default_left":[0,0,0,0,0,0,0,0,0,0,0,0,0],"id":12,"left_children":[1,3,5,-1,7,9,11,-1,-1,-1,-1,-1,-1],"loss_changes":[2.8385308E3,8.704104E2,2.0616196E3,0E0,9.295459E1,2.4322119E2,4.333618E1,0E0,0E0,0E0,0E0,0E0,0E0],"parents":[2147483647,0,0,1,1,2,2,4,4,5,5,6,6],"right_children":[2,4,6,-1,8,10,12,-1,-1,-1,-1,-1,-1],"split_conditions":[1.86E2,4E0,8.96E3,1.9706734E-2,1E0,5.06E2,5.3E1,-1.6068928E-2,-1.0548166E-2,1.6818505E-2,8.843293E-3,-1.5157215E-2,4.4322535E-3],"split_indices":[2,8,8,0,1,5,6,0,0,0,0,0,0],"split_type":[0,0,0,0,0,0,0,0,0,0,0,0,0],"sum_hessian":[3.6135464E3,1.426419E3,2.1871274E3,8.4013374E1,1.3424055E3,1.8219839E3,3.6514355E2,6.044165E2,7.37989E2,5.7211414E2,1.2498698E3,3.5592163E2,9.221895E0],"tree_param":{"num_deleted":"0","num_feature":"10","num_nodes":"13","size_leaf_vector":"1"}},{"base_weights":[-7.946867E-3,1.1968974E-1,-1.5100986E0,-9.8639834E-1,8.089178E-1,-1.8112535E-2,-1.2529166E0,7.1061794E-3,-1.1283701E-2,4.892723E-3,1.4757963E-2,1.2981956E-2,-1.398197E-2],"categories":[],"categories_nodes":[],"categories_segments":[],"categories_sizes":[],"default_left":[0,0,0,0,0,0,0,0,0,0,0,0,0],"id":13,"left_children":[1,3,5,7,9,-1,11,-1,-1,-1,-1,-1,-1],"loss_changes":[6.956718E2,2.5396765E3,1.134845E1,3.1036865E2,4.3239563E2,0E0,6.438602E1,0E0,0E0,0E0,0E0,0E0,0E0],"parents":[2147483647,0,0,1,1,2,2,3,3,4,4,6,6],"right_children":[2,4,6,8,10,-1,12,-1,-1,-1,-1,-1,-1],"split_conditions":[7.52E3,2.09E2,3.79E2,1.35E2,5.3E1,-1.8112535E-2,3.83E2,7.1061794E-3,-1.1283701E-2,4.892723E-3,1.4757963E-2,1.2981956E-2,-1.398197E-2],"split_indices":[9,2,3,3,6,0,3,0,0,0,0,0,0],"split_type":[0,0,0,0,0,0,0,0,0,0,0,0,0],"sum_hessian":[3.6100125E3,3.3277642E3,2.822482E2,1.2760951E3,2.0516692E3,1.20860756E2,1.6138744E2,9.680988E1,1.1792853E3,1.3912751E3,6.603939E2,7.098599E0,1.5428883E2],"tree_param":{"num_deleted":"0","num_feature":"10","num_nodes":"13","size_leaf_vector":"1"}},{"base_weights":[-1.44129675E-2,-1.080565E0,6.73563E-1,-3.483995E-3,-1.3018413E0,1.6410015E0,3.096406E-1,-1.0229482E-2,5.7328106E-3,-1.7246602E-2,-8.550227E-3,1.7039604E-2,5.648413E-3,1.0741049E-3,8.835303E-3],"categories":[],"categories_nodes":[],"categories_segments":[],"categories_sizes":[],"default_left":[0,0,0,0,0,0,0,0,0,0,0,0,0,0,0],"id":14,"left_children":[1,3,5,7,9,11,13,-1,-1,-1,-1,-1,-1,-1,-1],"loss_changes":[2.6466462E3,3.3483203E2,7.6658813E2,1.4604329E2,2.13505E2,3.3988037E1,1.8309164E2,0E0,0E0,0E0,0E0,0E0,0E0,0E0,0E0],"parents":[2147483647,0,0,1,1,2,2,3,3,4,4,5,5,6,6],"right_children":[2,4,6,8,10,12,14,-1,-1,-1,-1,-1,-1,-1,-1],"split_conditions":[1.86E2,4.2E1,5.38E2,1.7E1,6.9E1,3.81E2,3.19E2,-1.0229482E-2,5.7328106E-3,-1.7246602E-2,-8.550227E-3,1.7039604E-2,5.648413E-3,1.0741049E-3,8.835303E-3],"split_indices":[2,2,5,2,2,2,2,0,0,0,0,0,0,0,0],"split_type":[0,0,0,0,0,0,0,0,0,0,0,0,0,0,0],"sum_hessian":[3.603213E3,1.413887E3,2.1893257E3,2.4285239E2,1.1710345E3,5.950232E2,1.5943026E3,8.844369E1,1.5440869E2,5.964374E2,5.745972E2,5.592784E2,3.574482E1,1.1832148E3,4.1108774E2],"tree_param":{"num_deleted":"0","num_feature":"10","num_nodes":"15","size_leaf_vector":"1"}},{"base_weights":[9.0894965E-4,9.7345686E-1,-2.5343695E-1,-1.488575E0,1.6119107E0,-1.011797E0,3.2788706E-1,-1.6130269E-2,1.4511105E-3,-6.493757E-3,1.6829263E-2,4.5590664E-4,-1.2485308E-2,-4.1516786E-3,5.9127975E-3],"categories":[],"categories_nodes":[],"categories_segments":[],"categories_sizes":[],"default_left":[0,0,0,0,0,0,0,0,0,0,0,0,0,0,0],"id":15,"left_children":[1,3,5,7,9,11,13,-1,-1,-1,-1,-1,-1,-1,-1],"loss_changes":[8.966523E2,1.1869258E3,1.2660164E3,3.4963165E1,1.0038977E2,3.144447E2,3.1849454E2,0E0,0E0,0E0,0E0,0E0,0E0,0E0,0E0],"parents":[2147483647,0,0,1,1,2,2,3,3,4,4,5,5,6,6],"right_children":[2,4,6,8,10,12,14,-1,-1,-1,-1,-1,-1,-1,-1],"split_conditions":[5.38E2,1.42E2,1.86E2,4.16E2,1E0,4.2E1,1E0,-1.6130269E-2,1.4511105E-3,-6.493757E-3,1.6829263E-2,4.5590664E-4,-1.2485308E-2,-4.1516786E-3,5.9127975E-3],"split_indices":[5,2,2,5,1,2,1,0,0,0,0,0,0,0,0],"split_type":[0,0,0,0,0,0,0,0,0,0,0,0,0,0,0],"sum_hessian":[3.615019E3,7.498832E2,2.8651357E3,1.5322295E2,5.966603E2,1.2441078E3,1.6210281E3,1.4353795E2,9.684998E0,1.6814098E1,5.798462E2,2.2633464E2,1.0177731E3,4.219429E2,1.1990852E3],"tree_param":{"num_deleted":"0","num_feature":"10","num_nodes":"15","size_leaf_vector":"1"}},{"base_weights":[2.5610814E-3,6.0843027E-1,-1.5867004E0,-1.7133234E-2,7.739012E-1,-1.0999455E0,-1.800458E-2,1.5704198E-2,4.460127E-3,9.20804E-3,-1.1740504E-2],"categories":[],"categories_nodes":[],"categories_segments":[],"categories_sizes":[],"default_left":[0,0,0,0,0,0,0,0,0,0,0],"id":16,"left_children":[1,3,5,-1,7,9,-1,-1,-1,-1,-1],"loss_changes":[3.4615276E3,1.0016088E3,9.3440674E1,0E0,6.302449E2,4.9189575E1,0E0,0E0,0E0,0E0,0E0],"parents":[2147483647,0,0,1,1,2,2,4,4,5,5],"right_children":[2,4,6,-1,8,10,-1,-1,-1,-1,-1],"split_conditions":[8.764E3,1.495E3,1.2108E4,-1.7133234E-2,1.18E3,8.34E2,-1.800458E-2,1.5704198E-2,4.460127E-3,9.20804E-3,-1.1740504E-2],"split_indices":[8,7,8,0,8,5,0,0,0,0,0],"split_type":[0,0,0,0,0,0,0,0,0,0,0],"sum_hessian":[3.5929827E3,2.6031028E3,9.8987994E2,1.7113144E2,2.4319714E3,3.086623E2,6.8121765E2,7.0519867E2,1.7267727E3,9.155774E0,2.9950653E2],"tree_param":{"num_deleted":"0","num_feature":"10","num_nodes":"11","size_leaf_vector":"1"}},{"base_weights":[1.39666265E-2,-1.0751678E0,4.3932718E-1,-3.4647685E-1,-1.4140908E0,4.9576163E-2,1.4866167E0,-1.2208007E-2,2.6366839E-3,-1.5237751E-2,1.9752358E-3,-2.2024978E-3,1.8206416E-2,-5.051588E-3,1.6458038E-2],"categories":[],"categories_nodes":[],"categories_segments":[],"categories_sizes":[],"default_left":[0,0,0,0,0,0,0,0,0,0,0,0,0,0,0],"id":17,"left_children":[1,3,5,7,9,11,13,-1,-1,-1,-1,-1,-1,-1,-1],"loss_changes":[1.6623816E3,2.442655E2,1.0514243E3,1.7555527E2,1.243385E2,9.0550226E2,2.2566797E2,0E0,0E0,0E0,0E0,0E0,0E0,0E0,0E0],"parents":[2147483647,0,0,1,1,2,2,3,3,4,4,5,5,6,6],"right_children":[2,4,6,8,10,12,14,-1,-1,-1,-1,-1,-1,-1,-1],"split_conditions":[1E0,3E0,5.3E1,2.09E2,3.19E2,1.535E3,5.5E1,-1.2208007E-2,2.6366839E-3,-1.5237751E-2,1.9752358E-3,-2.2024978E-3,1.8206416E-2,-5.051588E-3,1.6458038E-2],"split_indices":[1,0,6,2,2,7,2,0,0,0,0,0,0,0,0],"split_type":[0,0,0,0,0,0,0,0,0,0,0,0,0,0,0],"sum_hessian":[3.587033E3,1.0052741E3,2.5817588E3,3.2228998E2,6.8298413E2,1.8844581E3,6.9730066E2,1.3299191E2,1.8929808E2,6.4072705E2,4.2257084E1,1.6358539E3,2.4860416E2,5.0353878E1,6.469468E2],"tree_param":{"num_deleted":"0","num_feature":"10","num_nodes":"15","size_leaf_vector":"1"}},{"base_weights":[2.0337366E-3,-1.0640672E0,4.2425117E-1,-1.5514277E0,-3.563886E-1,-7.0431197E-1,9.518527E-1,1.1523052E-2,-1.621813E-2,5.019028E-3,-1.8579451E-2,1.9581301E-2,-1.01820165E-2,1.218878E-2,-1.2020674E-2],"categories":[],"categories_nodes":[],"categories_segments":[],"categories_sizes":[],"default_left":[0,0,0,0,0,0,0,0,0,0,0,0,0,0,0],"id":18,"left_children":[1,3,5,7,9,11,13,-1,-1,-1,-1,-1,-1,-1,-1],"loss_changes":[1.6257219E3,3.482704E2,1.5442891E3,1.1964966E2,5.483118E2,6.9172687E2,1.0194247E3,0E0,0E0,0E0,0E0,0E0,0E0,0E0,0E0],"parents":[2147483647,0,0,1,1,2,2,3,3,4,4,5,5,6,6],"right_children":[2,4,6,8,10,12,14,-1,-1,-1,-1,-1,-1,-1,-1],"split_conditions":[1E0,2.09E2,1.8E2,5E0,7.24E3,4E0,9.584E3,1.1523052E-2,-1.621813E-2,5.019028E-3,-1.8579451E-2,1.9581301E-2,-1.01820165E-2,1.218878E-2,-1.2020674E-2],"split_indices":[1,2,2,4,8,8,8,0,0,0,0,0,0,0,0],"split_type":[0,0,0,0,0,0,0,0,0,0,0,0,0,0,0],"sum_hessian":[3.6105374E3,1.02205817E3,2.588479E3,6.021571E2,4.1990106E2,8.2318634E2,1.7652927E3,1.377704E1,5.8838007E2,2.6718015E2,1.5272093E2,8.503798E1,7.381484E2,1.5721831E3,1.9310963E2],"tree_param":{"num_deleted":"0","num_feature":"10","num_nodes":"15","size_leaf_vector":"1"}},{"base_weights":[8.433018E-3,5.984537E-1,-1.5499189E0,-1.67997E-2,7.592034E-1,-1.060064E0,-1.7630507E0,1.5742464E-2,4.264347E-3,9.107981E-3,-1.13367485E-2,-5.786888E-3,-1.7728664E-2],"categories":[],"categories_nodes":[],"categories_segments":[],"categories_sizes":[],"default_left":[0,0,0,0,0,0,0,0,0,0,0,0,0],"id":19,"left_children":[1,3,5,-1,7,9,11,-1,-1,-1,-1,-1,-1],"loss_changes":[3.293614E3,9.532495E2,9.3288574E1,0E0,6.5414307E2,4.6906494E1,1.1433105E0,0E0,0E0,0E0,0E0,0E0,0E0],"parents":[2147483647,0,0,1,1,2,2,4,4,5,5,6,6],"right_children":[2,4,6,-1,8,10,12,-1,-1,-1,-1,-1,-1],"split_conditions":[8.764E3,1.495E3,1.2044E4,-1.67997E-2,1.18E3,8.34E2,1.17E2,1.5742464E-2,4.264347E-3,9.107981E-3,-1.13367485E-2,-5.786888E-3,-1.7728664E-2],"split_indices":[8,7,8,0,8,5,5,0,0,0,0,0,0],"split_type":[0,0,0,0,0,0,0,0,0,0,0,0,0],"sum_hessian":[3.5801702E3,2.5987507E3,9.8141943E2,1.6920073E2,2.42955E3,3.0401443E2,6.77405E2,7.004591E2,1.729091E3,9.148766E0,2.9486566E2,8.228406E0,6.6917664E2],"tree_param":{"num_deleted":"0","num_feature":"10","num_nodes":"13","size_leaf_vector":"1"}},{"base_weights":[4.941452E-3,-1.005034E0,6.84874E-1,1.9204479E-2,-1.1883854E0,1.1025776E0,-1.3684711E0,1.6160742E-4,-1.4189835E-2,1.56141715E-2,8.714246E-3,-6.769954E-3,-1.8066863E-2],"categories":[],"categories_nodes":[],"categories_segments":[],"categories_sizes":[],"default_left":[0,0,0,0,0,0,0,0,0,0,0,0,0],"id":20,"left_children":[1,3,5,-1,7,9,11,-1,-1,-1,-1,-1,-1],"loss_changes":[2.4523958E3,7.733916E2,1.8345648E3,0E0,3.7873755E2,1.8087476E2,1.0202362E2,0E0,0E0,0E0,0E0,0E0,0E0],"parents":[2147483647,0,0,1,1,2,2,4,4,5,5,6,6],"right_children":[2,4,6,-1,8,10,12,-1,-1,-1,-1,-1,-1],"split_conditions":[2.09E2,4E0,8.96E3,1.9204479E-2,3.2E1,1.18E3,1.2216E4,1.6160742E-4,-1.4189835E-2,1.56141715E-2,8.714246E-3,-6.769954E-3,-1.8066863E-2],"split_indices":[2,8,8,0,2,8,8,0,0,0,0,0,0],"split_type":[0,0,0,0,0,0,0,0,0,0,0,0,0],"sum_hessian":[3.5681257E3,1.4340631E3,2.1340625E3,8.281667E1,1.3512465E3,1.7749017E3,3.5916092E2,2.1602275E2,1.1352236E3,5.8785175E2,1.1870499E3,1.4306587E2,2.1609506E2],"tree_param":{"num_deleted":"0","num_feature":"10","num_nodes":"13","size_leaf_vector":"1"}},{"base_weights":[9.0461895E-3,5.915477E-1,-1.5285828E0,-4.879039E-1,1.0967338E0,-1.6808815E-2,-1.3106018E0,-1.6874922E-2,-1.7035326E-3,1.5808377E-2,8.65741E-3,-1.8048689E-2,-1.0159594E-2],"categories":[],"categories_nodes":[],"categories_segments":[],"categories_sizes":[],"default_left":[0,0,0,0,0,0,0,0,0,0,0,0,0],"id":21,"left_children":[1,3,5,7,9,-1,11,-1,-1,-1,-1,-1,-1],"loss_changes":[3.201626E3,1.4173442E3,2.2203125E1,3.1088303E2,1.9024463E2,0E0,5.1605286E1,0E0,0E0,0E0,0E0,0E0,0E0],"parents":[2147483647,0,0,1,1,2,2,3,3,4,4,6,6],"right_children":[2,4,6,8,10,-1,12,-1,-1,-1,-1,-1,-1],"split_conditions":[8.764E3,2.09E2,1.45E2,1.495E3,5.06E2,-1.6808815E-2,1E0,-1.6874922E-2,-1.7035326E-3,1.5808377E-2,8.65741E-3,-1.8048689E-2,-1.0159594E-2],"split_indices":[8,2,2,7,5,0,1,0,0,0,0,0,0],"split_type":[0,0,0,0,0,0,0,0,0,0,0,0,0],"sum_hessian":[3.572628E3,2.5928916E3,9.7973645E2,8.253794E2,1.7675121E3,5.6346075E2,4.1627567E2,1.69635E2,6.557444E2,5.643753E2,1.2031368E3,1.491071E2,2.6716858E2],"tree_param":{"num_deleted":"0","num_feature":"10","num_nodes":"13","size_leaf_vector":"1"}},{"base_weights":[-9.776928E-3,-9.885581E-1,6.5525883E-1,1.32553745E-2,-1.1966313E0,3.3284277E-1,1.3825799E0,-1.0089104E-2,6.1305505E-3,-1.6457401E-2,-7.555403E-3,4.4938964E-3,-1.6831296E-2,-1.3610529E-2,1.5806418E-2],"categories":[],"categories_nodes":[],"categories_segments":[],"categories_sizes":[],"default_left":[0,0,0,0,0,0,0,0,0,0,0,0,0,0,0],"id":22,"left_children":[1,3,5,7,9,11,13,-1,-1,-1,-1,-1,-1,-1,-1],"loss_changes":[2.3218508E3,3.0337805E2,4.932813E2,1.5288611E2,2.2988293E2,3.4557098E2,3.5754565E2,0E0,0E0,0E0,0E0,0E0,0E0,0E0,0E0],"parents":[2147483647,0,0,1,1,2,2,3,3,4,4,5,5,6,6],"right_children":[2,4,6,8,10,12,14,-1,-1,-1,-1,-1,-1,-1,-1],"split_conditions":[2.09E2,4.2E1,5.3E1,1.7E1,6.9E1,9.212E3,1E0,-1.0089104E-2,6.1305505E-3,-1.6457401E-2,-7.555403E-3,4.4938964E-3,-1.6831296E-2,-1.3610529E-2,1.5806418E-2],"split_indices":[2,2,6,2,2,9,1,0,0,0,0,0,0,0,0],"split_type":[0,0,0,0,0,0,0,0,0,0,0,0,0,0,0],"sum_hessian":[3.5619902E3,1.4418903E3,2.1200999E3,2.4664151E2,1.1952488E3,1.4728579E3,6.472419E2,8.947002E1,1.571715E2,5.872885E2,6.0796027E2,1.39477E3,7.808785E1,4.2107677E1,6.051342E2],"tree_param":{"num_deleted":"0","num_feature":"10","num_nodes":"15","size_leaf_vector":"1"}},{"base_weights":[-1.8201999E-3,-9.6704555E-1,6.4421266E-1,-1.5140076E0,-5.853489E-1,1.5367572E0,3.1601158E-1,6.836959E-4,-1.6774645E-2,3.7761335E-3,-7.927654E-3,1.6131753E-2,2.4477285E-3,1.2318885E-3,8.500181E-3],"categories":[],"categories_nodes":[],"categories_segments":[],"categories_sizes":[],"default_left":[0,0,0,0,0,0,0,0,0,0,0,0,0,0,0],"id":23,"left_children":[1,3,5,7,9,11,13,-1,-1,-1,-1,-1,-1,-1,-1],"loss_changes":[2.2333552E3,2.9400623E2,6.2328284E2,1.5531738E2,1.7154166E2,5.2183594E1,1.5966013E2,0E0,0E0,0E0,0E0,0E0,0E0,0E0,0E0],"parents":[2147483647,0,0,1,1,2,2,3,3,4,4,5,5,6,6],"right_children":[2,4,6,8,10,12,14,-1,-1,-1,-1,-1,-1,-1,-1],"split_conditions":[2.09E2,1E0,5.38E2,2.4E1,4.2E1,3.81E2,3.19E2,6.836959E-4,-1.6774645E-2,3.7761335E-3,-7.927654E-3,1.6131753E-2,2.4477285E-3,1.2318885E-3,8.500181E-3],"split_indices":[2,1,5,2,2,2,2,0,0,0,0,0,0,0,0],"split_type":[0,0,0,0,0,0,0,0,0,0,0,0,0,0,0],"sum_hessian":[3.5765452E3,1.4348561E3,2.141689E3,5.851613E2,8.4969476E2,5.72181E2,1.5695079E3,5.375019E1,5.3141113E2,1.4858467E2,7.011101E2,5.382968E2,3.388427E1,1.1576885E3,4.1181943E2],"tree_param":{"num_deleted":"0","num_feature":"10","num_nodes":"15","size_leaf_vector":"1"}},{"base_weights":[-4.2751743E-4,5.77469E-1,-1.5132768E0,1.5275917E0,2.2574356E-1,-1.0413697E0,-1.7239923E-2,1.6120506E-2,2.5095337E-3,-7.796967E-3,8.31012E-3,1.0142897E-2,-1.1100903E-2],"categories":[],"categories_nodes":[],"categories_segments":[],"categories_sizes":[],"default_left":[0,0,0,0,0,0,0,0,0,0,0,0,0],"id":24,"left_children":[1,3,5,7,9,11,-1,-1,-1,-1,-1,-1,-1],"loss_changes":[3.1277073E3,8.600504E2,8.92439E1,7.059961E1,1.1523861E3,4.6707336E1,0E0,0E0,0E0,0E0,0E0,0E0,0E0],"parents":[2147483647,0,0,1,1,2,2,3,3,4,4,5,5],"right_children":[2,4,6,8,10,12,-1,-1,-1,-1,-1,-1,-1],"split_conditions":[8.764E3,1.18E3,1.2044E4,3.81E2,2.09E2,8.34E2,-1.7239923E-2,1.6120506E-2,2.5095337E-3,-7.796967E-3,8.31012E-3,1.0142897E-2,-1.1100903E-2],"split_indices":[8,8,8,2,2,5,0,0,0,0,0,0,0],"split_type":[0,0,0,0,0,0,0,0,0,0,0,0,0],"sum_hessian":[3.571366E3,2.584154E3,9.872119E2,6.9482837E2,1.8893257E3,3.113359E2,6.7587604E2,6.497505E2,4.507786E1,7.0850824E2,1.1808175E3,8.239627E0,3.0309628E2],"tree_param":{"num_deleted":"0","num_feature":"10","num_nodes":"13","size_leaf_vector":"1"}},{"base_weights":[1.9569148E-3,-2.3150292E-1,7.001458E-1,-9.3712395E-1,3.4527382E-1,-1.2982299E0,1.3930296E0,-0E0,-1.1292288E-2,2.2694506E-3,1.47473E-2,-5.790129E-4,-1.51938265E-2,1.470339E-2,-6.154595E-3],"categories":[],"categories_nodes":[],"categories_segments":[],"categories_sizes":[],"default_left":[0,0,0,0,0,0,0,0,0,0,0,0,0,0,0],"id":25,"left_children":[1,3,5,7,9,11,13,-1,-1,-1,-1,-1,-1,-1,-1],"loss_changes":[5.806014E2,1.0856165E3,1.2407023E3,2.1650977E2,1.9174117E2,5.9835114E1,1.0678064E2,0E0,0E0,0E0,0E0,0E0,0E0,0E0,0E0],"parents":[2147483647,0,0,1,1,2,2,3,3,4,4,5,5,6,6],"right_children":[2,4,6,8,10,12,14,-1,-1,-1,-1,-1,-1,-1,-1],"split_conditions":[5.3E1,2.09E2,1.42E2,4.2E1,2.011E3,3.8E1,8.96E2,-0E0,-1.1292288E-2,2.2694506E-3,1.47473E-2,-5.790129E-4,-1.51938265E-2,1.470339E-2,-6.154595E-3],"split_indices":[6,2,2,2,7,2,5,0,0,0,0,0,0,0,0],"split_type":[0,0,0,0,0,0,0,0,0,0,0,0,0,0,0],"sum_hessian":[3.5522534E3,2.660957E3,8.912964E2,1.197801E3,1.4631559E3,2.2827754E2,6.630188E2,2.0370741E2,9.940936E2,1.3281803E3,1.3497566E2,3.6293533E1,1.9198401E2,6.399191E2,2.3099697E1],"tree_param":{"num_deleted":"0","num_feature":"10","num_nodes":"15","size_leaf_vector":"1"}},{"base_weights":[-2.7574883E-3,-9.884451E-1,6.2755364E-1,1.25223035E-2,-1.1967592E0,3.103671E-1,1.3659078E0,-9.076768E-3,6.289824E-3,-1.589236E-2,-7.679536E-3,4.3137157E-3,-1.6284894E-2,1.4543459E-2,2.9633325E-4],"categories":[],"categories_nodes":[],"categories_segments":[],"categories_sizes":[],"default_left":[0,0,0,0,0,0,0,0,0,0,0,0,0,0,0],"id":26,"left_children":[1,3,5,7,9,11,13,-1,-1,-1,-1,-1,-1,-1,-1],"loss_changes":[2.2109524E3,2.9198755E2,5.0369507E2,1.3648212E2,1.8659534E2,3.5596548E2,7.3666626E1,0E0,0E0,0E0,0E0,0E0,0E0,0E0,0E0],"parents":[2147483647,0,0,1,1,2,2,3,3,4,4,5,5,6,6],"right_children":[2,4,6,8,10,12,14,-1,-1,-1,-1,-1,-1,-1,-1],"split_conditions":[1.86E2,3.8E1,5.3E1,1.7E1,6.9E1,9.212E3,3.81E2,-9.076768E-3,6.289824E-3,-1.589236E-2,-7.679536E-3,4.3137157E-3,-1.6284894E-2,1.4543459E-2,2.9633325E-4],"split_indices":[2,2,6,2,2,9,2,0,0,0,0,0,0,0,0],"split_type":[0,0,0,0,0,0,0,0,0,0,0,0,0,0,0],"sum_hessian":[3.5534902E3,1.3868131E3,2.1666772E3,2.3756606E2,1.1492471E3,1.5194796E3,6.4719763E2,9.36236E1,1.4394246E2,5.9478033E2,5.544667E2,1.4326539E3,8.6825676E1,6.054537E2,4.1743958E1],"tree_param":{"num_deleted":"0","num_feature":"10","num_nodes":"15","size_leaf_vector":"1"}},{"base_weights":[8.311321E-3,5.745367E-1,-1.4923815E0,-1.5929442E-2,7.298339E-1,-1.0253348E0,-1.6976022E0,1.4713296E-2,4.287628E-3,8.566668E-3,-1.0984132E-2,-3.1414963E-3,-1.7075162E-2],"categories":[],"categories_nodes":[],"categories_segments":[],"categories_sizes":[],"default_left":[0,0,0,0,0,0,0,0,0,0,0,0,0],"id":27,"left_children":[1,3,5,-1,7,9,11,-1,-1,-1,-1,-1,-1],"loss_changes":[3.029566E3,8.7278345E2,8.465234E1,0E0,5.3521423E2,4.4460114E1,4.1046143E0,0E0,0E0,0E0,0E0,0E0,0E0],"parents":[2147483647,0,0,1,1,2,2,4,4,5,5,6,6],"right_children":[2,4,6,-1,8,10,12,-1,-1,-1,-1,-1,-1],"split_conditions":[8.764E3,1.495E3,1.2108E4,-1.5929442E-2,1.18E3,8.34E2,1.17E2,1.4713296E-2,4.287628E-3,8.566668E-3,-1.0984132E-2,-3.1414963E-3,-1.7075162E-2],"split_indices":[8,7,8,0,8,5,5,0,0,0,0,0,0],"split_type":[0,0,0,0,0,0,0,0,0,0,0,0,0],"sum_hessian":[3.5634685E3,2.5891318E3,9.743366E2,1.7100626E2,2.4181257E3,3.0406833E2,6.702683E2,6.941399E2,1.7239857E3,9.541118E0,2.9452722E2,6.669663E0,6.6359863E2],"tree_param":{"num_deleted":"0","num_feature":"10","num_nodes":"13","size_leaf_vector":"1"}},{"base_weights":[-2.4385815E-3,5.658403E-1,-1.5020483E0,6.3795793E-1,-1.0625608E0,-4.1268016E-3,-1.5089767E-2,9.338712E-3,2.2445999E-3,-3.9603948E-3,-1.6828371E-2],"categories":[],"categories_nodes":[],"categories_segments":[],"categories_sizes":[],"default_left":[0,0,0,0,0,0,0,0,0,0,0],"id":28,"left_children":[1,3,5,7,9,-1,-1,-1,-1,-1,-1],"loss_changes":[3.0170635E3,3.0171454E2,2.2573242E0,2.980866E2,3.9303284E1,0E0,0E0,0E0,0E0,0E0,0E0],"parents":[2147483647,0,0,1,1,2,2,3,3,4,4],"right_children":[2,4,6,8,10,-1,-1,-1,-1,-1,-1],"split_conditions":[8.764E3,7.52E3,1.17E2,5E0,9.212E3,-4.1268016E-3,-1.5089767E-2,9.338712E-3,2.2445999E-3,-3.9603948E-3,-1.6828371E-2],"split_indices":[8,9,5,0,9,0,0,0,0,0,0],"split_type":[0,0,0,0,0,0,0,0,0,0,0],"sum_hessian":[3.5341462E3,2.5628594E3,9.712869E2,2.4565115E3,1.0634787E2,8.728242E0,9.625587E2,1.4275522E3,1.0289591E3,5.4396828E1,5.1951042E1],"tree_param":{"num_deleted":"0","num_feature":"10","num_nodes":"11","size_leaf_vector":"1"}},{"base_weights":[1.3930118E-2,-9.8333466E-1,4.0987056E-1,-1.3119572E0,-3.0082572E-1,5.967204E-2,1.3645755E0,1.3149042E-3,-1.3951132E-2,9.640245E-3,-1.6899467E-2,5.2023856E-3,-1.2717483E-2,1.5086026E-2,-1.13141425E-2],"categories":[],"categories_nodes":[],"categories_segments":[],"categories_sizes":[],"default_left":[0,0,0,0,0,0,0,0,0,0,0,0,0,0,0],"id":29,"left_children":[1,3,5,7,9,11,13,-1,-1,-1,-1,-1,-1,-1,-1],"loss_changes":[1.404891E3,2.2263947E2,8.4964026E2,8.4460815E1,5.8981354E2,1.1462019E3,2.4962732E2,0E0,0E0,0E0,0E0,0E0,0E0,0E0,0E0],"parents":[2147483647,0,0,1,1,2,2,3,3,4,4,5,5,6,6],"right_children":[2,4,6,8,10,12,14,-1,-1,-1,-1,-1,-1,-1,-1],"split_conditions":[1E0,3.84E2,5.3E1,2.448E3,7.24E3,8.62E3,1.2108E4,1.3149042E-3,-1.3951132E-2,9.640245E-3,-1.6899467E-2,5.2023856E-3,-1.2717483E-2,1.5086026E-2,-1.13141425E-2],"split_indices":[1,9,6,8,8,8,8,0,0,0,0,0,0,0,0],"split_type":[0,0,0,0,0,0,0,0,0,0,0,0,0,0,0],"sum_hessian":[3.5568333E3,1.0085516E3,2.5482817E3,6.775445E2,3.3100708E2,1.8674836E3,6.8079803E2,3.553326E1,6.420112E2,1.728199E2,1.5818718E2,1.3895348E3,4.7794885E2,6.451624E2,3.563562E1],"tree_param":{"num_deleted":"0","num_feature":"10","num_nodes":"15","size_leaf_vector":"1"}},{"base_weights":[-6.057118E-3,8.956387E-1,-2.3920517E-1,-2.1527484E-1,1.4689023E0,-3.387198E-1,1.3829405E0,-1.53398765E-2,9.438387E-3,-1.21796E-2,1.5362052E-2,-8.897406E-3,-7.6325244E-4,-1.5883967E-2,1.7560055E-2],"categories":[],"categories_nodes":[],"categories_segments":[],"categories_sizes":[],"default_left":[0,0,0,0,0,0,0,0,0,0,0,0,0,0,0],"id":30,"left_children":[1,3,5,7,9,11,13,-1,-1,-1,-1,-1,-1,-1,-1],"loss_changes":[7.42875E2,4.6516858E2,4.5316345E2,3.823926E2,9.117749E1,3.8172653E2,1.8538736E2,0E0,0E0,0E0,0E0,0E0,0E0,0E0,0E0],"parents":[2147483647,0,0,1,1,2,2,3,3,4,4,5,5,6,6],"right_children":[2,4,6,8,10,12,14,-1,-1,-1,-1,-1,-1,-1,-1],"split_conditions":[5.38E2,3.12E2,1.987E3,1E0,1E0,1E0,1E0,-1.53398765E-2,9.438387E-3,-1.21796E-2,1.5362052E-2,-8.897406E-3,-7.6325244E-4,-1.5883967E-2,1.7560055E-2],"split_indices":[5,5,7,1,1,1,1,0,0,0,0,0,0,0,0],"split_type":[0,0,0,0,0,0,0,0,0,0,0,0,0,0,0],"sum_hessian":[3.5358596E3,7.2349493E2,2.8123647E3,2.4550227E2,4.7799268E2,2.6524583E3,1.5990643E2,1.153492E2,1.3015308E2,1.0118854E1,4.678738E2,8.5163855E2,1.8008197E3,1.6512623E1,1.4339381E2],"tree_param":{"num_deleted":"0","num_feature":"10","num_nodes":"15","size_leaf_vector":"1"}},{"base_weights":[-1.3059785E-3,-9.372988E-1,6.277439E-1,1.8957265E-2,-1.1223905E0,9.98798E-1,-1.4279587E0,-0E0,-1.3405863E-2,1.0448555E-2,-1.6610602E-2,2.1594195E-3,-1.4713507E-2],"categories":[],"categories_nodes":[],"categories_segments":[],"categories_sizes":[],"default_left":[0,0,0,0,0,0,0,0,0,0,0,0,0],"id":31,"left_children":[1,3,5,-1,7,9,11,-1,-1,-1,-1,-1,-1],"loss_changes":[2.0748477E3,7.458767E2,1.6081213E3,0E0,3.2568665E2,2.2099658E2,2.6111816E1,0E0,0E0,0E0,0E0,0E0,0E0],"parents":[2147483647,0,0,1,1,2,2,4,4,5,5,6,6],"right_children":[2,4,6,-1,8,10,12,-1,-1,-1,-1,-1,-1],"split_conditions":[2.09E2,4E0,9.584E3,1.8957265E-2,3.2E1,9.7E3,8.34E2,-0E0,-1.3405863E-2,1.0448555E-2,-1.6610602E-2,2.1594195E-3,-1.4713507E-2],"split_indices":[2,8,8,0,2,9,5,0,0,0,0,0,0],"split_type":[0,0,0,0,0,0,0,0,0,0,0,0,0],"sum_hessian":[3.5188909E3,1.4152595E3,2.1036316E3,8.499724E1,1.3302622E3,1.7836788E3,3.1995264E2,2.1716667E2,1.1130956E3,1.7552515E3,2.842736E1,6.838341E0,3.1311432E2],"tree_param":{"num_deleted":"0","num_feature":"10","num_nodes":"13","size_leaf_vector":"1"}},{"base_weights":[1.4640293E-3,5.497814E-1,-1.4405603E0,-1.5777245E-2,6.977985E-1,-9.914331E-1,-1.6511629E0,1.4639299E-2,3.9372626E-3,7.323029E-3,-1.0523434E-2,-5.151579E-3,-1.6610617E-2],"categories":[],"categories_nodes":[],"categories_segments":[],"categories_sizes":[],"default_left":[0,0,0,0,0,0,0,0,0,0,0,0,0],"id":32,"left_children":[1,3,5,-1,7,9,11,-1,-1,-1,-1,-1,-1],"loss_changes":[2.803362E3,8.1018536E2,8.379187E1,0E0,5.5571936E2,3.57493E1,1.3427734E0,0E0,0E0,0E0,0E0,0E0,0E0],"parents":[2147483647,0,0,1,1,2,2,4,4,5,5,6,6],"right_children":[2,4,6,-1,8,10,12,-1,-1,-1,-1,-1,-1],"split_conditions":[8.764E3,1.495E3,1.2108E4,-1.5777245E-2,1.18E3,8.34E2,1.17E2,1.4639299E-2,3.9372626E-3,7.323029E-3,-1.0523434E-2,-5.151579E-3,-1.6610617E-2],"split_indices":[8,7,8,0,8,5,5,0,0,0,0,0,0],"split_type":[0,0,0,0,0,0,0,0,0,0,0,0,0],"sum_hessian":[3.5437266E3,2.56937E3,9.743564E2,1.6499564E2,2.4043745E3,3.1771487E2,6.5664154E2,6.791079E2,1.7252665E3,8.970591E0,3.0874426E2,8.334178E0,6.483073E2],"tree_param":{"num_deleted":"0","num_feature":"10","num_nodes":"13","size_leaf_vector":"1"}},{"base_weights":[2.8356428E-3,5.5142784E-1,-1.4241843E0,-4.643315E-1,1.0339818E0,-1.5559151E-2,-1.2217999E0,9.28269E-3,-7.874264E-3,1.0709175E-2,-1.5185797E-2,-9.704913E-3,-1.548436E-2],"categories":[],"categories_nodes":[],"categories_segments":[],"categories_sizes":[],"default_left":[0,0,0,0,0,0,0,0,0,0,0,0,0],"id":33,"left_children":[1,3,5,7,9,-1,11,-1,-1,-1,-1,-1,-1],"loss_changes":[2.7463494E3,1.2454377E3,1.6603027E1,3.687812E2,1.6467163E2,0E0,2.4727112E1,0E0,0E0,0E0,0E0,0E0,0E0],"parents":[2147483647,0,0,1,1,2,2,3,3,4,4,6,6],"right_children":[2,4,6,8,10,-1,12,-1,-1,-1,-1,-1,-1],"split_conditions":[8.764E3,2.09E2,1.69E2,4.2E1,9.212E3,-1.5559151E-2,1.184E3,9.28269E-3,-7.874264E-3,1.0709175E-2,-1.5185797E-2,-9.704913E-3,-1.548436E-2],"split_indices":[8,2,2,2,9,0,9,0,0,0,0,0,0],"split_type":[0,0,0,0,0,0,0,0,0,0,0,0,0],"sum_hessian":[3.5063572E3,2.5346033E3,9.717539E2,8.14996E2,1.7196072E3,5.745349E2,3.9721902E2,1.516066E2,6.6338934E2,1.696996E3,2.2611216E1,2.3244498E2,1.6477403E2],"tree_param":{"num_deleted":"0","num_feature":"10","num_nodes":"13","size_leaf_vector":"1"}},{"base_weights":[-0E0,-9.9586344E-1,3.922437E-1,-1.306463E0,-3.2708982E-1,6.7154354E-1,-4.1660586E-1,5.98116E-4,-1.3862552E-2,9.417045E-3,-1.6405893E-2,9.901205E-3,-1.1304814E-2,1.8268438E-2,-8.824813E-3],"categories":[],"categories_nodes":[],"categories_segments":[],"categories_sizes":[],"default_left":[0,0,0,0,0,0,0,0,0,0,0,0,0,0,0],"id":34,"left_children":[1,3,5,7,9,11,13,-1,-1,-1,-1,-1,-1,-1,-1],"loss_changes":[1.3739574E3,2.0228015E2,5.7153485E2,7.649451E1,5.3751636E2,1.0810226E3,6.7812646E2,0E0,0E0,0E0,0E0,0E0,0E0,0E0,0E0],"parents":[2147483647,0,0,1,1,2,2,3,3,4,4,5,5,6,6],"right_children":[2,4,6,8,10,12,14,-1,-1,-1,-1,-1,-1,-1,-1],"split_conditions":[1E0,3.84E2,1.188E3,2.448E3,7.24E3,9.268E3,4E0,5.98116E-4,-1.3862552E-2,9.417045E-3,-1.6405893E-2,9.901205E-3,-1.1304814E-2,1.8268438E-2,-8.824813E-3],"split_indices":[1,9,9,8,8,8,8,0,0,0,0,0,0,0,0],"split_type":[0,0,0,0,0,0,0,0,0,0,0,0,0,0,0],"sum_hessian":[3.514822E3,9.9165027E2,2.5231719E3,6.738128E2,3.178375E2,1.8776292E3,6.455426E2,3.5824753E1,6.3798804E2,1.6118344E2,1.5665405E2,1.5972627E3,2.803665E2,1.0925987E2,5.362827E2],"tree_param":{"num_deleted":"0","num_feature":"10","num_nodes":"15","size_leaf_vector":"1"}},{"base_weights":[-0E0,-9.783701E-1,3.8546503E-1,-1.2234024E0,3.712609E-2,4.063114E-2,1.3232327E0,-1.3612158E-2,4.483579E-3,-1.1022556E-2,8.651269E-3,-6.989771E-3,5.181049E-3,-4.9889E-3,1.4861568E-2],"categories":[],"categories_nodes":[],"categories_segments":[],"categories_sizes":[],"default_left":[0,0,0,0,0,0,0,0,0,0,0,0,0,0,0],"id":35,"left_children":[1,3,5,7,9,11,13,-1,-1,-1,-1,-1,-1,-1,-1],"loss_changes":[1.3338271E3,2.5120142E2,8.175965E2,1.8896313E2,1.8508794E2,6.567184E2,2.0547266E2,0E0,0E0,0E0,0E0,0E0,0E0,0E0,0E0],"parents":[2147483647,0,0,1,1,2,2,3,3,4,4,5,5,6,6],"right_children":[2,4,6,8,10,12,14,-1,-1,-1,-1,-1,-1,-1,-1],"split_conditions":[1E0,3.79E2,5.3E1,3.19E2,2.8E1,1.8E2,5.5E1,-1.3612158E-2,4.483579E-3,-1.1022556E-2,8.651269E-3,-6.989771E-3,5.181049E-3,-4.9889E-3,1.4861568E-2],"split_indices":[1,3,6,2,4,2,2,0,0,0,0,0,0,0,0],"split_type":[0,0,0,0,0,0,0,0,0,0,0,0,0,0,0],"sum_hessian":[3.5327312E3,9.97633E2,2.5350981E3,8.049613E2,1.9267169E2,1.8566093E3,6.7848895E2,7.451055E2,5.985576E1,7.979323E1,1.1287846E2,7.263596E2,1.1302496E3,5.4341473E1,6.241475E2],"tree_param":{"num_deleted":"0","num_feature":"10","num_nodes":"15","size_leaf_vector":"1"}},{"base_weights":[6.8243034E-4,5.358051E-1,-1.42677985E-2,-1.5579438E-2,6.7972934E-1,-2.7670183E-3,9.549537E-3],"categories":[],"categories_nodes":[],"categories_segments":[],"categories_sizes":[],"default_left":[0,0,0,0,0,0,0],"id":36,"left_children":[1,3,-1,-1,5,-1,-1],"loss_changes":[2.6905696E3,7.73186E2,0E0,0E0,6.341575E2,0E0,0E0],"parents":[2147483647,0,0,1,1,4,4],"right_children":[2,4,-1,-1,6,-1,-1],"split_conditions":[8.764E3,1.495E3,-1.42677985E-2,-1.5579438E-2,1.45E2,-2.7670183E-3,9.549537E-3],"split_indices":[8,7,0,0,2,0,0],"split_type":[0,0,0,0,0,0,0],"sum_hessian":[3.5206306E3,2.5626155E3,9.58015E2,1.6266652E2,2.399949E3,5.3466364E2,1.8652854E3],"tree_param":{"num_deleted":"0","num_feature":"10","num_nodes":"7","size_leaf_vector":"1"}},{"base_weights":[-7.2624516E-3,5.255881E-1,-1.4036633E0,-4.264385E-1,7.826458E-1,-1.6164947E-2,-1.207598E0,7.4674543E-3,-9.486813E-3,1.4516531E-2,4.563003E-3,-7.1643973E-3,-1.6081812E-2],"categories":[],"categories_nodes":[],"categories_segments":[],"categories_sizes":[],"default_left":[0,0,0,0,0,0,0,0,0,0,0,0,0],"id":37,"left_children":[1,3,5,7,9,-1,11,-1,-1,-1,-1,-1,-1],"loss_changes":[2.6366272E3,6.283872E2,3.130371E1,3.3533826E2,4.3582153E2,0E0,9.583081E1,0E0,0E0,0E0,0E0,0E0,0E0],"parents":[2147483647,0,0,1,1,2,2,3,3,4,4,6,6],"right_children":[2,4,6,8,10,-1,12,-1,-1,-1,-1,-1,-1],"split_conditions":[8.764E3,1E0,1E0,5.7E1,1.18E3,-1.6164947E-2,1.2108E4,7.4674543E-3,-9.486813E-3,1.4516531E-2,4.563003E-3,-7.1643973E-3,-1.6081812E-2],"split_indices":[8,1,1,4,8,0,8,0,0,0,0,0,0],"split_type":[0,0,0,0,0,0,0,0,0,0,0,0,0],"sum_hessian":[3.537163E3,2.5600808E3,9.770825E2,5.423524E2,2.0177283E3,4.566705E2,5.20412E2,1.6561649E2,3.7673593E2,6.572805E2,1.3604478E3,2.3852467E2,2.8188733E2],"tree_param":{"num_deleted":"0","num_feature":"10","num_nodes":"13","size_leaf_vector":"1"}},{"base_weights":[-0E0,5.161498E-1,-1.378336E0,-1.5372138E-2,6.587441E-1,-1.6053312E-2,-1.173806E0,-3.016294E-3,9.4072195E-3,-6.882457E-3,-1.5671419E-2],"categories":[],"categories_nodes":[],"categories_segments":[],"categories_sizes":[],"default_left":[0,0,0,0,0,0,0,0,0,0,0],"id":38,"left_children":[1,3,5,-1,7,-1,9,-1,-1,-1,-1],"loss_changes":[2.5195417E3,7.539644E2,3.5486572E1,0E0,6.5428796E2,0E0,9.261145E1,0E0,0E0,0E0,0E0],"parents":[2147483647,0,0,1,1,2,2,4,4,6,6],"right_children":[2,4,6,-1,8,-1,10,-1,-1,-1,-1],"split_conditions":[8.764E3,1.495E3,1E0,-1.5372138E-2,1.45E2,-1.6053312E-2,1.2108E4,-3.016294E-3,9.4072195E-3,-6.882457E-3,-1.5671419E-2],"split_indices":[8,7,1,0,2,0,8,0,0,0,0],"split_type":[0,0,0,0,0,0,0,0,0,0,0],"sum_hessian":[3.5353552E3,2.572117E3,9.6323846E2,1.6483919E2,2.4072776E3,4.454189E2,5.178195E2,5.44741E2,1.8625366E3,2.3647862E2,2.813409E2],"tree_param":{"num_deleted":"0","num_feature":"10","num_nodes":"11","size_leaf_vector":"1"}},{"base_weights":[-1.7448968E-3,5.1487523E-1,-1.3745095E0,-4.4158617E-1,9.6223706E-1,-1.5126535E-2,-1.1872224E0,1.8515961E-2,-7.271284E-3,1.3872417E-2,7.3898234E-3,-5.2493354E-3,-1.6562872E-2],"categories":[],"categories_nodes":[],"categories_segments":[],"categories_sizes":[],"default_left":[0,0,0,0,0,0,0,0,0,0,0,0,0],"id":39,"left_children":[1,3,5,7,9,-1,11,-1,-1,-1,-1,-1,-1],"loss_changes":[2.478721E3,1.0872681E3,1.5744629E1,5.297179E2,1.5787695E2,0E0,1.2477521E2,0E0,0E0,0E0,0E0,0E0,0E0],"parents":[2147483647,0,0,1,1,2,2,3,3,4,4,6,6],"right_children":[2,4,6,8,10,-1,12,-1,-1,-1,-1,-1,-1],"split_conditions":[8.764E3,2.09E2,1.45E2,4E0,1.364E3,-1.5126535E-2,1.2216E4,1.8515961E-2,-7.271284E-3,1.3872417E-2,7.3898234E-3,-5.2493354E-3,-1.6562872E-2],"split_indices":[8,2,2,8,8,0,8,0,0,0,0,0,0],"split_type":[0,0,0,0,0,0,0,0,0,0,0,0,0],"sum_hessian":[3.4886853E3,2.5346133E3,9.5407214E2,8.062986E2,1.7283146E3,5.34782E2,4.192902E2,8.729129E1,7.190073E2,5.8853986E2,1.1397748E3,1.7736478E2,2.4192542E2],"tree_param":{"num_deleted":"0","num_feature":"10","num_nodes":"13","size_leaf_vector":"1"}},{"base_weights":[3.5623228E-3,5.2367127E-1,-1.3762574E0,-4.5677248E-1,9.869881E-1,-1.5003036E-2,-1.1871048E0,1.8293895E-2,-7.1229916E-3,1.0251198E-2,-1.6602598E-2,-5.4265456E-3,-1.631461E-2],"categories":[],"categories_nodes":[],"categories_segments":[],"categories_sizes":[],"default_left":[0,0,0,0,0,0,0,0,0,0,0,0,0],"id":40,"left_children":[1,3,5,7,9,-1,11,-1,-1,-1,-1,-1,-1],"loss_changes":[2.5075298E3,1.155917E3,1.3496704E1,4.7658868E2,1.7647632E2,0E0,1.0689313E2,0E0,0E0,0E0,0E0,0E0,0E0],"parents":[2147483647,0,0,1,1,2,2,3,3,4,4,6,6],"right_children":[2,4,6,8,10,-1,12,-1,-1,-1,-1,-1,-1],"split_conditions":[8.764E3,2.09E2,1.69E2,4E0,9.212E3,-1.5003036E-2,1.2216E4,1.8293895E-2,-7.1229916E-3,1.0251198E-2,-1.6602598E-2,-5.4265456E-3,-1.631461E-2],"split_indices":[8,2,2,8,9,0,8,0,0,0,0,0,0],"split_type":[0,0,0,0,0,0,0,0,0,0,0,0,0],"sum_hessian":[3.4924202E3,2.5383176E3,9.541025E2,8.1319464E2,1.7251229E3,5.614602E2,3.9264227E2,7.972857E1,7.3346606E2,1.7025796E3,2.2543383E1,1.6389236E2,2.2874991E2],"tree_param":{"num_deleted":"0","num_feature":"10","num_nodes":"13","size_leaf_vector":"1"}},{"base_weights":[-1.5023228E-3,-9.108087E-1,5.7983446E-1,-1.3788232E0,-5.787186E-1,-3.483699E-1,8.076572E-1,1.0120405E-2,-1.4434198E-2,-8.235056E-3,1.8030826E-2,2.5019406E-3,-8.806675E-3,2.7765387E-3,1.029856E-2],"categories":[],"categories_nodes":[],"categories_segments":[],"categories_sizes":[],"default_left":[0,0,0,0,0,0,0,0,0,0,0,0,0,0,0],"id":41,"left_children":[1,3,5,7,9,11,13,-1,-1,-1,-1,-1,-1,-1,-1],"loss_changes":[1.8518204E3,2.0696057E2,4.5293225E2,9.08064E1,4.7069864E2,1.3564473E2,1.989552E2,0E0,0E0,0E0,0E0,0E0,0E0,0E0,0E0],"parents":[2147483647,0,0,1,1,2,2,3,3,4,4,5,5,6,6],"right_children":[2,4,6,8,10,12,14,-1,-1,-1,-1,-1,-1,-1,-1],"split_conditions":[1.86E2,1E0,1E0,5E0,1.535E3,3E0,3E0,1.0120405E-2,-1.4434198E-2,-8.235056E-3,1.8030826E-2,2.5019406E-3,-8.806675E-3,2.7765387E-3,1.029856E-2],"split_indices":[2,1,1,4,7,0,0,0,0,0,0,0,0,0,0],"split_type":[0,0,0,0,0,0,0,0,0,0,0,0,0,0,0],"sum_hessian":[3.497917E3,1.3650542E3,2.1328628E3,5.61461E2,8.0359326E2,4.1839288E2,1.7144698E3,1.3184335E1,5.482767E2,7.306498E2,7.2943504E1,1.9566826E2,2.2272462E2,5.104387E2,1.2040311E3],"tree_param":{"num_deleted":"0","num_feature":"10","num_nodes":"15","size_leaf_vector":"1"}},{"base_weights":[-0E0,-9.3068916E-1,3.6366114E-1,-3.4328195E-1,-1.5835322E-2,7.4521244E-1,-1.2085007E0,-7.918093E-3,1.2246483E-2,1.4194253E-2,4.2689396E-3,-7.3226816E-3,-1.5506812E-2],"categories":[],"categories_nodes":[],"categories_segments":[],"categories_sizes":[],"default_left":[0,0,0,0,0,0,0,0,0,0,0,0,0],"id":42,"left_children":[1,3,5,7,-1,9,11,-1,-1,-1,-1,-1,-1],"loss_changes":[1.171778E3,3.6797357E2,1.4952987E3,3.6398184E2,0E0,4.2582874E2,7.2405396E1,0E0,0E0,0E0,0E0,0E0,0E0],"parents":[2147483647,0,0,1,1,2,2,3,3,5,5,6,6],"right_children":[2,4,6,8,-1,10,12,-1,-1,-1,-1,-1,-1],"split_conditions":[1E0,7.24E3,8.96E3,3.79E2,-1.5835322E-2,1.18E3,1.2108E4,-7.918093E-3,1.2246483E-2,1.4194253E-2,4.2689396E-3,-7.3226816E-3,-1.5506812E-2],"split_indices":[1,8,8,3,0,8,8,0,0,0,0,0,0],"split_type":[0,0,0,0,0,0,0,0,0,0,0,0,0],"sum_hessian":[3.4597222E3,9.7043604E2,2.4892861E3,5.140372E2,4.5639883E2,2.00501E3,4.8427603E2,4.014598E2,1.1257736E2,6.388005E2,1.3662095E3,2.0754643E2,2.767296E2],"tree_param":{"num_deleted":"0","num_feature":"10","num_nodes":"13","size_leaf_vector":"1"}},{"base_weights":[-8.659063E-3,4.7150955E-1,-1.3970671E-2,-1.5199607E-2,6.10915E-1,1.3735458E-2,3.2250131E-3],"categories":[],"categories_nodes":[],"categories_segments":[],"categories_sizes":[],"default_left":[0,0,0,0,0,0,0],"id":43,"left_children":[1,3,-1,-1,5,-1,-1],"loss_changes":[2.3233806E3,7.1807776E2,0E0,0E0,5.279099E2,0E0,0E0],"parents":[2147483647,0,0,1,1,4,4],"right_children":[2,4,-1,-1,6,-1,-1],"split_conditions":[9.268E3,1.495E3,-1.3970671E-2,-1.5199607E-2,1.18E3,1.3735458E-2,3.2250131E-3],"split_indices":[8,7,0,0,8,0,0],"split_type":[0,0,0,0,0,0,0],"sum_hessian":[3.4783005E3,2.5843918E3,8.939087E2,1.6684088E2,2.417551E3,6.594245E2,1.7581265E3],"tree_param":{"num_deleted":"0","num_feature":"10","num_nodes":"7","size_leaf_vector":"1"}},{"base_weights":[-4.5673796E-3,4.9460527E-1,-1.3481333E0,-4.7568023E-1,9.518138E-1,-9.082766E-1,-1.5475937E-2,1.797112E-2,-7.3080747E-3,9.914275E-3,-1.5407705E-2,-9.7940285E-3,9.672116E-3],"categories":[],"categories_nodes":[],"categories_segments":[],"categories_sizes":[],"default_left":[0,0,0,0,0,0,0,0,0,0,0,0,0],"id":44,"left_children":[1,3,5,7,9,11,-1,-1,-1,-1,-1,-1,-1],"loss_changes":[2.3408096E3,1.129485E3,7.526062E1,4.7252692E2,1.7275781E2,4.234697E1,0E0,0E0,0E0,0E0,0E0,0E0,0E0],"parents":[2147483647,0,0,1,1,2,2,3,3,4,4,5,5],"right_children":[2,4,6,8,10,12,-1,-1,-1,-1,-1,-1,-1],"split_conditions":[8.764E3,2.09E2,1.2108E4,4E0,9.212E3,5.3E1,-1.5475937E-2,1.797112E-2,-7.3080747E-3,9.914275E-3,-1.5407705E-2,-9.7940285E-3,9.672116E-3],"split_indices":[8,2,8,8,9,6,0,0,0,0,0,0,0],"split_type":[0,0,0,0,0,0,0,0,0,0,0,0,0],"sum_hessian":[3.4837144E3,2.53986E3,9.4385443E2,8.1205853E2,1.7278014E3,3.010667E2,6.427878E2,7.99449E1,7.3211365E2,1.7027472E3,2.505426E1,2.9201428E2,9.05242E0],"tree_param":{"num_deleted":"0","num_feature":"10","num_nodes":"13","size_leaf_vector":"1"}},{"base_weights":[-4.215621E-3,-8.874293E-1,5.5077726E-1,1.0600287E-1,-1.0934404E0,6.42937E-1,-1.6085122E-2,-4.869488E-4,1.2317894E-2,-1.5302005E-2,-7.743219E-3,-1.8906931E-3,8.3385E-3],"categories":[],"categories_nodes":[],"categories_segments":[],"categories_sizes":[],"default_left":[0,0,0,0,0,0,0,0,0,0,0,0,0],"id":45,"left_children":[1,3,5,7,9,11,-1,-1,-1,-1,-1,-1,-1],"loss_changes":[1.7094852E3,2.7780933E2,4.2588995E2,4.279478E1,1.487345E2,3.2789685E2,0E0,0E0,0E0,0E0,0E0,0E0,0E0],"parents":[2147483647,0,0,1,1,2,2,3,3,4,4,5,5],"right_children":[2,4,6,8,10,12,-1,-1,-1,-1,-1,-1,-1],"split_conditions":[1.86E2,3.8E1,9.212E3,1.904E3,1E0,1E0,-1.6085122E-2,-4.869488E-4,1.2317894E-2,-1.5302005E-2,-7.743219E-3,-1.8906931E-3,8.3385E-3],"split_indices":[2,2,9,7,1,1,0,0,0,0,0,0,0],"split_type":[0,0,0,0,0,0,0,0,0,0,0,0,0],"sum_hessian":[3.4821155E3,1.3446499E3,2.1374656E3,2.2945044E2,1.1151995E3,2.0522068E3,8.5258675E1,2.018505E2,2.7599934E1,4.6496695E2,6.5023254E2,3.8106305E2,1.6711438E3],"tree_param":{"num_deleted":"0","num_feature":"10","num_nodes":"13","size_leaf_vector":"1"}},{"base_weights":[6.654027E-3,-8.435034E-1,5.7043076E-1,-1.3404791E0,-5.08567E-1,-3.2771435E-1,7.947089E-1,2.6652652E-3,-1.4992473E-2,1.7897889E-2,-7.734769E-3,3.5516068E-3,-1.623911E-2,1.0338404E-2,-1.0912162E-2],"categories":[],"categories_nodes":[],"categories_segments":[],"categories_sizes":[],"default_left":[0,0,0,0,0,0,0,0,0,0,0,0,0,0,0],"id":46,"left_children":[1,3,5,7,9,11,13,-1,-1,-1,-1,-1,-1,-1,-1],"loss_changes":[1.6578052E3,2.2434296E2,4.2079456E2,1.4390906E2,5.054388E2,3.7155966E2,7.544569E2,0E0,0E0,0E0,0E0,0E0,0E0,0E0,0E0],"parents":[2147483647,0,0,1,1,2,2,3,3,4,4,5,5,6,6],"right_children":[2,4,6,8,10,12,14,-1,-1,-1,-1,-1,-1,-1,-1],"split_conditions":[2.09E2,1E0,1E0,2.4E1,4E0,7.24E3,9.584E3,2.6652652E-3,-1.4992473E-2,1.7897889E-2,-7.734769E-3,3.5516068E-3,-1.623911E-2,1.0338404E-2,-1.0912162E-2],"split_indices":[2,1,1,2,8,8,8,0,0,0,0,0,0,0,0],"split_type":[0,0,0,0,0,0,0,0,0,0,0,0,0,0,0],"sum_hessian":[3.4559438E3,1.3761753E3,2.0797686E3,5.492409E2,8.2693445E2,4.136049E2,1.6661637E3,4.8129868E1,5.0111102E2,8.349246E1,7.43442E2,2.708317E2,1.427732E2,1.4804142E3,1.8574944E2],"tree_param":{"num_deleted":"0","num_feature":"10","num_nodes":"15","size_leaf_vector":"1"}},{"base_weights":[2.1921224E-3,4.9499977E-1,-1.3200382E0,-4.0814918E-1,7.4067926E-1,-1.5346762E-2,-1.1305368E0,-9.497995E-3,7.715077E-3,-1.39710605E-2,8.334647E-3,1.4978729E-2,-1.1759162E-2],"categories":[],"categories_nodes":[],"categories_segments":[],"categories_sizes":[],"default_left":[0,0,0,0,0,0,0,0,0,0,0,0,0],"id":47,"left_children":[1,3,5,7,9,-1,11,-1,-1,-1,-1,-1,-1],"loss_changes":[2.2546665E3,5.612254E2,2.9395508E1,3.463707E2,3.95214E2,0E0,6.3862427E1,0E0,0E0,0E0,0E0,0E0,0E0],"parents":[2147483647,0,0,1,1,2,2,3,3,4,4,6,6],"right_children":[2,4,6,8,10,-1,12,-1,-1,-1,-1,-1,-1],"split_conditions":[8.764E3,1E0,1E0,3.84E2,1.495E3,-1.5346762E-2,4.9E1,-9.497995E-3,7.715077E-3,-1.39710605E-2,8.334647E-3,1.4978729E-2,-1.1759162E-2],"split_indices":[8,1,1,9,7,0,4,0,0,0,0,0,0],"split_type":[0,0,0,0,0,0,0,0,0,0,0,0,0],"sum_hessian":[3.458699E3,2.5216284E3,9.370707E2,5.3723206E2,1.9843964E3,4.2778772E2,5.0928296E2,3.6960815E2,1.6762387E2,8.047918E1,1.9039172E3,6.8090444E0,5.024739E2],"tree_param":{"num_deleted":"0","num_feature":"10","num_nodes":"13","size_leaf_vector":"1"}},{"base_weights":[3.5281135E-3,4.8982602E-1,-1.3152429E0,1.3368564E0,1.8445347E-1,-8.709236E-1,-1.5239525E-2,1.4371278E-2,6.2958137E-3,-4.328662E-3,4.1631875E-3,-9.42993E-3,9.947144E-3],"categories":[],"categories_nodes":[],"categories_segments":[],"categories_sizes":[],"default_left":[0,0,0,0,0,0,0,0,0,0,0,0,0],"id":48,"left_children":[1,3,5,7,9,11,-1,-1,-1,-1,-1,-1,-1],"loss_changes":[2.2074028E3,6.476852E2,7.850903E1,4.122522E1,2.657822E2,4.264218E1,0E0,0E0,0E0,0E0,0E0,0E0,0E0],"parents":[2147483647,0,0,1,1,2,2,3,3,4,4,5,5],"right_children":[2,4,6,8,10,12,-1,-1,-1,-1,-1,-1,-1],"split_conditions":[8.764E3,1.18E3,1.2108E4,1.37E2,1E0,5.3E1,-1.5239525E-2,1.4371278E-2,6.2958137E-3,-4.328662E-3,4.1631875E-3,-9.42993E-3,9.947144E-3],"split_indices":[8,8,8,6,1,6,0,0,0,0,0,0,0],"split_type":[0,0,0,0,0,0,0,0,0,0,0,0,0],"sum_hessian":[3.4405566E3,2.5156736E3,9.2488306E2,6.6309686E2,1.8525768E3,3.0196393E2,6.229191E2,5.764773E2,8.661958E1,5.030073E2,1.3495696E3,2.9271738E2,9.246539E0],"tree_param":{"num_deleted":"0","num_feature":"10","num_nodes":"13","size_leaf_vector":"1"}},{"base_weights":[-5.4686563E-3,4.719527E-1,-1.3120692E0,-4.4520953E-1,9.0716267E-1,-8.728928E-1,-1.514813E-2,-6.4878208E-3,1.4457446E-2,9.493626E-3,-1.6048413E-2,-9.357646E-3,9.279495E-3],"categories":[],"categories_nodes":[],"categories_segments":[],"categories_sizes":[],"default_left":[0,0,0,0,0,0,0,0,0,0,0,0,0],"id":49,"left_children":[1,3,5,7,9,11,-1,-1,-1,-1,-1,-1,-1],"loss_changes":[2.1425728E3,1.00460693E3,7.445801E1,3.114759E2,1.8259021E2,3.552298E1,0E0,0E0,0E0,0E0,0E0,0E0,0E0],"parents":[2147483647,0,0,1,1,2,2,3,3,4,4,5,5],"right_children":[2,4,6,8,10,12,-1,-1,-1,-1,-1,-1,-1],"split_conditions":[8.764E3,2.09E2,1.2108E4,1.648E3,9.212E3,5.3E1,-1.514813E-2,-6.4878208E-3,1.4457446E-2,9.493626E-3,-1.6048413E-2,-9.357646E-3,9.279495E-3],"split_indices":[8,2,8,7,9,6,0,0,0,0,0,0,0],"split_type":[0,0,0,0,0,0,0,0,0,0,0,0,0],"sum_hessian":[3.4280374E3,2.5104763E3,9.1756104E2,8.064084E2,1.704068E3,2.9626907E2,6.21292E2,7.301724E2,7.623597E1,1.6779204E3,2.6147562E1,2.88276E2,7.993084E0],"tree_param":{"num_deleted":"0","num_feature":"10","num_nodes":"13","size_leaf_vector":"1"}},{"base_weights":[1.7741023E-2,-8.797221E-1,3.5964298E-1,-1.1125914E0,8.697694E-2,4.7578074E-2,1.241263E0,1.4069321E-2,-1.1553253E-2,-9.761956E-3,8.884618E-3,1.7333439E-2,-4.711731E-5,1.4936609E-2,9.078302E-3],"categories":[],"categories_nodes":[],"categories_segments":[],"categories_sizes":[],"default_left":[0,0,0,0,0,0,0,0,0,0,0,0,0,0,0],"id":50,"left_children":[1,3,5,7,9,11,13,-1,-1,-1,-1,-1,-1,-1,-1],"loss_changes":[1.0486086E3,2.1432178E2,6.7923364E2,8.46853E1,1.575582E2,1.6517323E2,4.687079E1,0E0,0E0,0E0,0E0,0E0,0E0,0E0,0E0],"parents":[2147483647,0,0,1,1,2,2,3,3,4,4,5,5,6,6],"right_children":[2,4,6,8,10,12,14,-1,-1,-1,-1,-1,-1,-1,-1],"split_conditions":[1E0,3.79E2,5.3E1,5E0,3.4E1,5.7E1,1.37E2,1.4069321E-2,-1.1553253E-2,-9.761956E-3,8.884618E-3,1.7333439E-2,-4.711731E-5,1.4936609E-2,9.078302E-3],"split_indices":[1,3,6,4,4,4,6,0,0,0,0,0,0,0,0],"split_type":[0,0,0,0,0,0,0,0,0,0,0,0,0,0,0],"sum_hessian":[3.4167231E3,9.4008514E2,2.476638E3,7.5901276E2,1.8107239E2,1.8324031E3,6.4423486E2,1.0813577E1,7.4819916E2,7.657029E1,1.045021E2,5.4344574E1,1.7780585E3,3.5929926E2,2.8493558E2],"tree_param":{"num_deleted":"0","num_feature":"10","num_nodes":"15","size_leaf_vector":"1"}},{"base_weights":[1.2347903E-3,4.6350452E-1,-1.3521944E0,-4.4521508E-1,8.9614207E-1,-9.6378785E-1,-1.5021536E-2,1.7606858E-2,-6.952706E-3,9.361987E-3,-1.5489996E-2,-6.7975954E-3,-1.3390362E-2],"categories":[],"categories_nodes":[],"categories_segments":[],"categories_sizes":[],"default_left":[0,0,0,0,0,0,0,0,0,0,0,0,0],"id":51,"left_children":[1,3,5,7,9,11,-1,-1,-1,-1,-1,-1,-1],"loss_changes":[2.1366382E3,1.0037602E3,4.2792725E1,4.5369528E2,1.7100964E2,2.0933807E1,0E0,0E0,0E0,0E0,0E0,0E0,0E0],"parents":[2147483647,0,0,1,1,2,2,3,3,4,4,5,5],"right_children":[2,4,6,8,10,12,-1,-1,-1,-1,-1,-1,-1],"split_conditions":[9.268E3,2.09E2,1.2108E4,4E0,9.212E3,9.48E2,-1.5021536E-2,1.7606858E-2,-6.952706E-3,9.361987E-3,-1.5489996E-2,-6.7975954E-3,-1.3390362E-2],"split_indices":[8,2,8,8,9,9,0,0,0,0,0,0,0],"split_type":[0,0,0,0,0,0,0,0,0,0,0,0,0],"sum_hessian":[3.4139102E3,2.546824E3,8.670862E2,8.199356E2,1.7268883E3,2.4937515E2,6.17711E2,8.1438E1,7.384976E2,1.7010732E3,2.5815056E1,1.4817393E2,1.0120121E2],"tree_param":{"num_deleted":"0","num_feature":"10","num_nodes":"13","size_leaf_vector":"1"}},{"base_weights":[7.5093843E-3,4.7860968E-1,-1.2833532E0,-1.4813625E-2,6.147157E-1,-1.1844566E0,-1.4385157E-2,-1.3145263E-3,8.95368E-3,1.6723724E-2,-1.2524406E-2],"categories":[],"categories_nodes":[],"categories_segments":[],"categories_sizes":[],"default_left":[0,0,0,0,0,0,0,0,0,0,0],"id":52,"left_children":[1,3,5,-1,7,9,-1,-1,-1,-1,-1],"loss_changes":[2.0916238E3,6.731051E2,5.451416E0,0E0,4.9628168E2,1.161087E2,0E0,0E0,0E0,0E0,0E0],"parents":[2147483647,0,0,1,1,2,2,4,4,5,5],"right_children":[2,4,6,-1,8,10,-1,-1,-1,-1,-1],"split_conditions":[8.764E3,1.495E3,1.184E3,-1.4813625E-2,2.09E2,3.75E2,-1.4385157E-2,-1.3145263E-3,8.95368E-3,1.6723724E-2,-1.2524406E-2],"split_indices":[8,7,9,0,2,3,0,0,0,0,0],"split_type":[0,0,0,0,0,0,0,0,0,0,0],"sum_hessian":[3.438086E3,2.5208938E3,9.171923E2,1.6145306E2,2.3594407E3,5.7857837E2,3.3861395E2,6.432291E2,1.7162115E3,1.1667543E1,5.669108E2],"tree_param":{"num_deleted":"0","num_feature":"10","num_nodes":"11","size_leaf_vector":"1"}},{"base_weights":[2.206355E-3,7.9872215E-1,-1.9564426E-1,1.3019715E-2,-3.571817E-3,2.8098866E-1,-1.34100765E-2,-1.4559837E-2,4.4204956E-3],"categories":[],"categories_nodes":[],"categories_segments":[],"categories_sizes":[],"default_left":[0,0,0,0,0,0,0,0,0],"id":53,"left_children":[1,3,5,-1,-1,7,-1,-1,-1],"loss_changes":[5.432114E2,4.0206656E2,1.5057826E3,0E0,0E0,5.4323047E2,0E0,0E0,0E0],"parents":[2147483647,0,0,1,1,2,2,5,5],"right_children":[2,4,6,-1,-1,8,-1,-1,-1],"split_conditions":[5.38E2,3.916E3,9.268E3,1.3019715E-2,-3.571817E-3,1.495E3,-1.34100765E-2,-1.4559837E-2,4.4204956E-3],"split_indices":[5,8,8,0,0,7,0,0,0],"split_type":[0,0,0,0,0,0,0,0,0],"sum_hessian":[3.43533E3,6.843357E2,2.7509944E3,4.777944E2,2.0654128E2,1.9424316E3,8.085627E2,1.6241022E2,1.7800215E3],"tree_param":{"num_deleted":"0","num_feature":"10","num_nodes":"9","size_leaf_vector":"1"}},{"base_weights":[1.1060926E-3,4.916213E-1,-1.195843E0,-4.005551E-1,9.057489E-1,-1.3964489E-2,-9.501962E-1,1.7440714E-2,-6.6824476E-3,1.3214619E-2,6.9792E-3,-3.2357324E-3,-1.52190635E-2],"categories":[],"categories_nodes":[],"categories_segments":[],"categories_sizes":[],"default_left":[0,0,0,0,0,0,0,0,0,0,0,0,0],"id":54,"left_children":[1,3,5,7,9,-1,11,-1,-1,-1,-1,-1,-1],"loss_changes":[2.0010444E3,8.960134E2,4.1449463E1,4.406113E2,1.3712341E2,0E0,1.5864148E2,0E0,0E0,0E0,0E0,0E0,0E0],"parents":[2147483647,0,0,1,1,2,2,3,3,4,4,6,6],"right_children":[2,4,6,8,10,-1,12,-1,-1,-1,-1,-1,-1],"split_conditions":[8.18E3,2.09E2,1.45E2,4E0,1.18E3,-1.3964489E-2,1.2216E4,1.7440714E-2,-6.6824476E-3,1.3214619E-2,6.9792E-3,-3.2357324E-3,-1.52190635E-2],"split_indices":[8,2,2,8,8,0,8,0,0,0,0,0,0],"split_type":[0,0,0,0,0,0,0,0,0,0,0,0,0],"sum_hessian":[3.406624E3,2.4184014E3,9.882226E2,7.651771E2,1.6532244E3,5.34343E2,4.5387955E2,8.285699E1,6.823201E2,5.442465E2,1.1089778E3,2.1970361E2,2.3417593E2],"tree_param":{"num_deleted":"0","num_feature":"10","num_nodes":"13","size_leaf_vector":"1"}},{"base_weights":[1.2407015E-3,-8.472379E-1,5.3395325E-1,1.320064E-1,-1.0359975E0,-3.2253823E-1,7.484271E-1,-7.951182E-3,7.7773524E-3,-1.4094422E-2,-6.3898778E-3,-8.240801E-3,2.8162608E-3,1.0265669E-2,-3.1277356E-3],"categories":[],"categories_nodes":[],"categories_segments":[],"categories_sizes":[],"default_left":[0,0,0,0,0,0,0,0,0,0,0,0,0,0,0],"id":55,"left_children":[1,3,5,7,9,11,13,-1,-1,-1,-1,-1,-1,-1,-1],"loss_changes":[1.5386022E3,2.4459137E2,3.8588538E2,1.2817433E2,1.5747058E2,1.2844003E2,4.969555E2,0E0,0E0,0E0,0E0,0E0,0E0,0E0,0E0],"parents":[2147483647,0,0,1,1,2,2,3,3,4,4,5,5,6,6],"right_children":[2,4,6,8,10,12,14,-1,-1,-1,-1,-1,-1,-1,-1],"split_conditions":[1.86E2,3.2E1,1E0,1.7E1,6.9E1,3.84E2,1.188E3,-7.951182E-3,7.7773524E-3,-1.4094422E-2,-6.3898778E-3,-8.240801E-3,2.8162608E-3,1.0265669E-2,-3.1277356E-3],"split_indices":[2,2,1,2,2,9,9,0,0,0,0,0,0,0,0],"split_type":[0,0,0,0,0,0,0,0,0,0,0,0,0,0,0],"sum_hessian":[3.4014077E3,1.3099878E3,2.09142E3,2.1009026E2,1.0998976E3,4.1676306E2,1.674657E3,8.47902E1,1.2530006E2,5.615454E2,5.383521E2,2.2913278E2,1.876303E2,1.3284272E3,3.4622974E2],"tree_param":{"num_deleted":"0","num_feature":"10","num_nodes":"15","size_leaf_vector":"1"}},{"base_weights":[-0E0,1.0742361E-1,-1.2635016E0,-7.5841904E-1,4.1070879E-1,-8.6516714E-1,-1.5362973E-2,6.7443834E-3,-1.1319463E-2,1.0646603E-3,1.2148303E-2,-1.4283794E-2,-0E0],"categories":[],"categories_nodes":[],"categories_segments":[],"categories_sizes":[],"default_left":[0,0,0,0,0,0,0,0,0,0,0,0,0],"id":56,"left_children":[1,3,5,7,9,11,-1,-1,-1,-1,-1,-1,-1],"loss_changes":[4.5879843E2,8.2071765E2,2.1312439E1,4.358691E2,5.641532E2,5.5844894E1,0E0,0E0,0E0,0E0,0E0,0E0,0E0],"parents":[2147483647,0,0,1,1,2,2,3,3,4,4,5,5],"right_children":[2,4,6,8,10,12,-1,-1,-1,-1,-1,-1,-1],"split_conditions":[7.52E3,1E0,9.212E3,5.7E1,5.3E1,1E0,-1.5362973E-2,6.7443834E-3,-1.1319463E-2,1.0646603E-3,1.2148303E-2,-1.4283794E-2,-0E0],"split_indices":[9,1,9,4,6,1,0,0,0,0,0,0,0],"split_type":[0,0,0,0,0,0,0,0,0,0,0,0,0],"sum_hessian":[3.3864565E3,3.1236611E3,2.627953E2,8.0782434E2,2.315837E3,1.1319016E2,1.4960512E2,1.6560294E2,6.422214E2,1.683594E3,6.322429E2,6.763124E1,4.5558926E1],"tree_param":{"num_deleted":"0","num_feature":"10","num_nodes":"13","size_leaf_vector":"1"}},{"base_weights":[-1.11818835E-2,4.4696888E-1,-1.2594845E0,9.945717E-1,2.7009287E-1,-3.1651082E-3,-1.2653154E0,6.6505314E-4,1.3711861E-2,1.6639965E-2,9.766659E-4,-8.387745E-3,-1.4718513E-2],"categories":[],"categories_nodes":[],"categories_segments":[],"categories_sizes":[],"default_left":[0,0,0,0,0,0,0,0,0,0,0,0,0],"id":57,"left_children":[1,3,5,7,9,-1,11,-1,-1,-1,-1,-1,-1],"loss_changes":[1.9394939E3,2.369035E2,1.0439453E0,2.0713458E2,4.4756433E2,0E0,7.241797E1,0E0,0E0,0E0,0E0,0E0,0E0],"parents":[2147483647,0,0,1,1,2,2,3,3,4,4,6,6],"right_children":[2,4,6,8,10,-1,12,-1,-1,-1,-1,-1,-1],"split_conditions":[8.764E3,5.38E2,1.17E2,3.12E2,4E0,-3.1651082E-3,1.2108E4,6.6505314E-4,1.3711861E-2,1.6639965E-2,9.766659E-4,-8.387745E-3,-1.4718513E-2],"split_indices":[8,5,5,5,8,0,8,0,0,0,0,0,0],"split_type":[0,0,0,0,0,0,0,0,0,0,0,0,0],"sum_hessian":[3.3844424E3,2.4755503E3,9.088923E2,5.9936884E2,1.8761814E3,8.373063E0,9.0051917E2,1.7522845E2,4.241404E2,2.0335422E2,1.6728271E3,3.0024814E2,6.0027106E2],"tree_param":{"num_deleted":"0","num_feature":"10","num_nodes":"13","size_leaf_vector":"1"}},{"base_weights":[4.1332175E-3,8.0761075E-1,-1.9373724E-1,-1.235508E0,1.3360013E0,-7.938216E-1,2.5850108E-1,-1.3307547E-2,8.023595E-4,1.4071465E-2,1.1846594E-3,1.3010693E-3,-1.00650145E-2,3.5494424E-3,-1.48066925E-2],"categories":[],"categories_nodes":[],"categories_segments":[],"categories_sizes":[],"default_left":[0,0,0,0,0,0,0,0,0,0,0,0,0,0,0],"id":58,"left_children":[1,3,5,7,9,11,13,-1,-1,-1,-1,-1,-1,-1,-1],"loss_changes":[5.406033E2,7.2939386E2,7.397108E2,2.006192E1,4.3041992E1,2.3220276E2,2.5892285E2,0E0,0E0,0E0,0E0,0E0,0E0,0E0,0E0],"parents":[2147483647,0,0,1,1,2,2,3,3,4,4,5,5,6,6],"right_children":[2,4,6,8,10,12,14,-1,-1,-1,-1,-1,-1,-1,-1],"split_conditions":[5.38E2,1.42E2,1.86E2,4.44E2,3.81E2,4.2E1,9.212E3,-1.3307547E-2,8.023595E-4,1.4071465E-2,1.1846594E-3,1.3010693E-3,-1.00650145E-2,3.5494424E-3,-1.48066925E-2],"split_indices":[5,2,2,6,2,2,9,0,0,0,0,0,0,0,0],"split_type":[0,0,0,0,0,0,0,0,0,0,0,0,0,0,0],"sum_hessian":[3.3886624E3,6.70393E2,2.7182693E3,1.364238E2,5.339692E2,1.1694344E3,1.5488348E3,1.2861087E2,7.812917E0,5.0264368E2,3.1325512E1,2.1720792E2,9.5222656E2,1.4700568E3,7.877807E1],"tree_param":{"num_deleted":"0","num_feature":"10","num_nodes":"15","size_leaf_vector":"1"}},{"base_weights":[1.2042672E-2,8.1393856E-1,-1.8661839E-1,-1.1837552E0,1.3314203E0,-7.875119E-1,2.5770515E-1,-1.3171575E-2,2.7077263E-3,9.507883E-3,1.4307271E-2,-9.2540765E-3,2.9893466E-3,1.591847E-3,1.2904819E-2],"categories":[],"categories_nodes":[],"categories_segments":[],"categories_sizes":[],"default_left":[0,0,0,0,0,0,0,0,0,0,0,0,0,0,0],"id":59,"left_children":[1,3,5,7,9,11,13,-1,-1,-1,-1,-1,-1,-1,-1],"loss_changes":[5.456813E2,7.0696906E2,7.322346E2,3.0025726E1,1.3013367E1,1.7648218E2,1.5675433E2,0E0,0E0,0E0,0E0,0E0,0E0,0E0,0E0],"parents":[2147483647,0,0,1,1,2,2,3,3,4,4,5,5,6,6],"right_children":[2,4,6,8,10,12,14,-1,-1,-1,-1,-1,-1,-1,-1],"split_conditions":[5.38E2,1.42E2,1.86E2,4.16E2,3.12E2,1.535E3,2.011E3,-1.3171575E-2,2.7077263E-3,9.507883E-3,1.4307271E-2,-9.2540765E-3,2.9893466E-3,1.591847E-3,1.2904819E-2],"split_indices":[5,2,2,5,5,7,7,0,0,0,0,0,0,0,0],"split_type":[0,0,0,0,0,0,0,0,0,0,0,0,0,0,0],"sum_hessian":[3.4135938E3,6.7853973E2,2.735054E3,1.3828035E2,5.4025934E2,1.163933E3,1.5711211E3,1.280959E2,1.0184442E1,1.2033126E2,4.199281E2,1.0347375E3,1.2919543E2,1.4381731E3,1.3294794E2],"tree_param":{"num_deleted":"0","num_feature":"10","num_nodes":"15","size_leaf_vector":"1"}},{"base_weights":[6.350648E-3,4.6602693E-1,-1.2362634E0,-3.9511254E-1,8.8044244E-1,-7.870915E-1,-1.4528586E-2,1.7378071E-2,-6.442981E-3,1.2882107E-2,6.7238067E-3,-1.4526836E-2,-5.695746E-3],"categories":[],"categories_nodes":[],"categories_segments":[],"categories_sizes":[],"default_left":[0,0,0,0,0,0,0,0,0,0,0,0,0],"id":60,"left_children":[1,3,5,7,9,11,-1,-1,-1,-1,-1,-1,-1],"loss_changes":[1.9429109E3,8.888688E2,8.255005E1,4.2923932E2,1.3692664E2,3.8608948E1,0E0,0E0,0E0,0E0,0E0,0E0,0E0],"parents":[2147483647,0,0,1,1,2,2,3,3,4,4,5,5],"right_children":[2,4,6,8,10,12,-1,-1,-1,-1,-1,-1,-1],"split_conditions":[8.764E3,2.09E2,1.2108E4,4E0,1.364E3,1E0,-1.4528586E-2,1.7378071E-2,-6.442981E-3,1.2882107E-2,6.7238067E-3,-1.4526836E-2,-5.695746E-3],"split_indices":[8,2,8,8,8,1,0,0,0,0,0,0,0],"split_type":[0,0,0,0,0,0,0,0,0,0,0,0,0],"sum_hessian":[3.400133E3,2.4840688E3,9.160642E2,8.055123E2,1.6785564E3,3.040439E2,6.120203E2,8.217303E1,7.233393E2,5.6035443E2,1.1182019E3,6.982644E1,2.3421747E2],"tree_param":{"num_deleted":"0","num_feature":"10","num_nodes":"13","size_leaf_vector":"1"}},{"base_weights":[6.453543E-3,4.639476E-1,-1.2521042E0,1.2933518E0,1.752536E-1,-8.417148E-1,-1.4462822E-2,1.6339187E-2,1.1100305E-2,-1.44659635E-2,3.202117E-3,-8.723054E-3,-2.1490934E-3],"categories":[],"categories_nodes":[],"categories_segments":[],"categories_sizes":[],"default_left":[0,0,0,0,0,0,0,0,0,0,0,0,0],"id":61,"left_children":[1,3,5,7,9,11,-1,-1,-1,-1,-1,-1,-1],"loss_changes":[1.9368284E3,5.880812E2,6.441821E1,3.0573608E1,4.3043185E2,3.1259918E0,0E0,0E0,0E0,0E0,0E0,0E0,0E0],"parents":[2147483647,0,0,1,1,2,2,3,3,4,4,5,5],"right_children":[2,4,6,8,10,12,-1,-1,-1,-1,-1,-1,-1],"split_conditions":[8.764E3,1.18E3,1.2108E4,4E0,1.495E3,1.188E4,-1.4462822E-2,1.6339187E-2,1.1100305E-2,-1.44659635E-2,3.202117E-3,-8.723054E-3,-2.1490934E-3],"split_indices":[8,8,8,8,7,8,0,0,0,0,0,0,0],"split_type":[0,0,0,0,0,0,0,0,0,0,0,0,0],"sum_hessian":[3.3625383E3,2.4681877E3,8.943507E2,6.337025E2,1.8344851E3,2.9398734E2,6.003634E2,2.123926E2,4.213099E2,1.4790527E2,1.6865798E3,2.7651807E2,1.7469292E1],"tree_param":{"num_deleted":"0","num_feature":"10","num_nodes":"13","size_leaf_vector":"1"}},{"base_weights":[-4.023744E-3,-7.978398E-1,5.013128E-1,-1.1198631E-3,-8.874074E-1,1.2983311E0,2.3123653E-1,-1.0455251E-2,3.205147E-3,9.0063615E-3,1.3971584E-2,1.3202324E-3,1.2784385E-2],"categories":[],"categories_nodes":[],"categories_segments":[],"categories_sizes":[],"default_left":[0,0,0,0,0,0,0,0,0,0,0,0,0],"id":62,"left_children":[1,3,5,-1,7,9,11,-1,-1,-1,-1,-1,-1],"loss_changes":[1.3432911E3,7.787665E1,4.3625378E2,0E0,2.2177551E2,1.3126465E1,1.5587994E2,0E0,0E0,0E0,0E0,0E0,0E0],"parents":[2147483647,0,0,1,1,2,2,4,4,5,5,6,6],"right_children":[2,4,6,-1,8,10,12,-1,-1,-1,-1,-1,-1],"split_conditions":[1.86E2,3.38E2,5.38E2,-1.1198631E-3,1.535E3,3.12E2,2.011E3,-1.0455251E-2,3.205147E-3,9.0063615E-3,1.3971584E-2,1.3202324E-3,1.2784385E-2],"split_indices":[2,3,5,0,7,5,7,0,0,0,0,0,0],"split_type":[0,0,0,0,0,0,0,0,0,0,0,0,0],"sum_hessian":[3.343176E3,1.3014976E3,2.0416783E3,1.5343294E2,1.1480646E3,5.129371E2,1.5287413E3,1.0168792E3,1.3118538E2,1.10148315E2,4.0278873E2,1.4002426E3,1.2849881E2],"tree_param":{"num_deleted":"0","num_feature":"10","num_nodes":"13","size_leaf_vector":"1"}},{"base_weights":[-9.207242E-3,4.3717977E-1,-1.2361324E0,1.2648425E0,1.532987E-1,-8.17332E-1,-1.4365222E-2,1.359894E-2,5.7010697E-3,-4.2514373E-3,3.7593895E-3,-8.8207275E-3,1.0377144E-2],"categories":[],"categories_nodes":[],"categories_segments":[],"categories_sizes":[],"default_left":[0,0,0,0,0,0,0,0,0,0,0,0,0],"id":63,"left_children":[1,3,5,7,9,11,-1,-1,-1,-1,-1,-1,-1],"loss_changes":[1.8303417E3,5.7174896E2,6.799927E1,3.572351E1,2.3541107E2,3.713208E1,0E0,0E0,0E0,0E0,0E0,0E0,0E0],"parents":[2147483647,0,0,1,1,2,2,3,3,4,4,5,5],"right_children":[2,4,6,8,10,12,-1,-1,-1,-1,-1,-1,-1],"split_conditions":[8.764E3,1.18E3,1.2108E4,1.37E2,1E0,5.3E1,-1.4365222E-2,1.359894E-2,5.7010697E-3,-4.2514373E-3,3.7593895E-3,-8.8207275E-3,1.0377144E-2],"split_indices":[8,8,8,6,1,6,0,0,0,0,0,0,0],"split_type":[0,0,0,0,0,0,0,0,0,0,0,0,0],"sum_hessian":[3.335079E3,2.4451335E3,8.8994543E2,6.209069E2,1.8242267E3,2.9453226E2,5.9541315E2,5.419635E2,7.8943405E1,5.0399454E2,1.3202322E3,2.8665518E2,7.877067E0],"tree_param":{"num_deleted":"0","num_feature":"10","num_nodes":"13","size_leaf_vector":"1"}},{"base_weights":[-5.190918E-3,-8.013158E-1,4.918911E-1,1.2036729E-1,-1.0046666E0,2.4392137E-1,1.1013715E0,-8.968237E-3,2.5551675E-3,-1.4374572E-2,-7.0860945E-3,1.3518359E-3,1.3168495E-2,-1.4651359E-2,1.3039433E-2],"categories":[],"categories_nodes":[],"categories_segments":[],"categories_sizes":[],"default_left":[0,0,0,0,0,0,0,0,0,0,0,0,0,0,0],"id":64,"left_children":[1,3,5,7,9,11,13,-1,-1,-1,-1,-1,-1,-1,-1],"loss_changes":[1.3244143E3,2.4328949E2,3.077717E2,3.1164986E1,1.2905884E2,1.6796057E2,3.1138458E2,0E0,0E0,0E0,0E0,0E0,0E0,0E0,0E0],"parents":[2147483647,0,0,1,1,2,2,3,3,4,4,5,5,6,6],"right_children":[2,4,6,8,10,12,14,-1,-1,-1,-1,-1,-1,-1,-1],"split_conditions":[1.86E2,4.2E1,5.3E1,7.8E1,1E0,2.011E3,1E0,-8.968237E-3,2.5551675E-3,-1.4374572E-2,-7.0860945E-3,1.3518359E-3,1.3168495E-2,-1.4651359E-2,1.3039433E-2],"split_indices":[2,2,6,3,1,7,1,0,0,0,0,0,0,0,0],"split_type":[0,0,0,0,0,0,0,0,0,0,0,0,0,0,0],"sum_hessian":[3.3411277E3,1.2853365E3,2.0557913E3,2.3069539E2,1.0546411E3,1.4655911E3,5.9020013E2,2.3998993E1,2.0669638E2,4.2251782E2,6.3212335E2,1.3344635E3,1.3112749E2,4.1541897E1,5.4865826E2],"tree_param":{"num_deleted":"0","num_feature":"10","num_nodes":"15","size_leaf_vector":"1"}},{"base_weights":[-5.4379688E-3,-7.5908834E-1,4.9485666E-1,1.4666586E-1,-9.4911504E-1,1.265368E0,2.3198707E-1,9.495115E-3,-1.3440483E-2,1.7092114E-2,-1.1437753E-2,1.3384236E-2,1.9171223E-4,6.185823E-3,-1.2349286E-2],"categories":[],"categories_nodes":[],"categories_segments":[],"categories_sizes":[],"default_left":[0,0,0,0,0,0,0,0,0,0,0,0,0,0,0],"id":65,"left_children":[1,3,5,7,9,11,13,-1,-1,-1,-1,-1,-1,-1,-1],"loss_changes":[1.2644592E3,2.3235394E2,4.0417126E2,2.7956458E2,5.7660913E2,4.36391E1,8.540334E2,0E0,0E0,0E0,0E0,0E0,0E0,0E0,0E0],"parents":[2147483647,0,0,1,1,2,2,3,3,4,4,5,5,6,6],"right_children":[2,4,6,8,10,12,14,-1,-1,-1,-1,-1,-1,-1,-1],"split_conditions":[2.09E2,4.2E1,5.38E2,8.18E3,4E0,3.81E2,9.584E3,9.495115E-3,-1.3440483E-2,1.7092114E-2,-1.1437753E-2,1.3384236E-2,1.9171223E-4,6.185823E-3,-1.2349286E-2],"split_indices":[2,2,5,8,8,2,8,0,0,0,0,0,0,0,0],"split_type":[0,0,0,0,0,0,0,0,0,0,0,0,0,0,0],"sum_hessian":[3.348189E3,1.337031E3,2.0111578E3,2.3011743E2,1.1069136E3,5.0771912E2,1.5034388E3,1.5091026E2,7.920717E1,7.376235E1,1.0331512E3,4.7794757E2,2.9771544E1,1.1918541E3,3.115847E2],"tree_param":{"num_deleted":"0","num_feature":"10","num_nodes":"15","size_leaf_vector":"1"}},{"base_weights":[-1.0543221E-3,9.966716E-2,-1.2291435E0,-7.360614E-1,3.9412647E-1,-1.4576356E-2,-9.679663E-1,-1.031319E-2,1.0367343E-2,7.047051E-3,-1.0340199E-2,-1.5160231E-2,-5.8836024E-3],"categories":[],"categories_nodes":[],"categories_segments":[],"categories_sizes":[],"default_left":[0,0,0,0,0,0,0,0,0,0,0,0,0],"id":66,"left_children":[1,3,5,7,9,-1,11,-1,-1,-1,-1,-1,-1],"loss_changes":[4.1462845E2,7.577448E2,7.4966736E0,4.2154422E2,1.01223E3,0E0,2.0773071E1,0E0,0E0,0E0,0E0,0E0,0E0],"parents":[2147483647,0,0,1,1,2,2,3,3,4,4,6,6],"right_children":[2,4,6,8,10,-1,12,-1,-1,-1,-1,-1,-1],"split_conditions":[7.52E3,1E0,1E0,3.79E2,8.96E3,-1.4576356E-2,3.79E2,-1.031319E-2,1.0367343E-2,7.047051E-3,-1.0340199E-2,-1.5160231E-2,-5.8836024E-3],"split_indices":[9,1,1,3,8,0,3,0,0,0,0,0,0],"split_type":[0,0,0,0,0,0,0,0,0,0,0,0,0],"sum_hessian":[3.329781E3,3.0775828E3,2.5219818E2,7.9928284E2,2.2783E3,1.255449E2,1.2665329E2,6.868527E2,1.1243008E2,1.8733225E3,4.0497748E2,4.722137E1,7.9431915E1],"tree_param":{"num_deleted":"0","num_feature":"10","num_nodes":"13","size_leaf_vector":"1"}},{"base_weights":[1.3130585E-3,4.1969568E-1,-1.2616615E0,1.2368042E0,1.4536472E-1,-8.3836764E-1,-1.4187941E-2,1.3427713E-2,4.791601E-3,9.3941897E-4,1.3301464E-2,-9.076549E-3,8.81918E-3],"categories":[],"categories_nodes":[],"categories_segments":[],"categories_sizes":[],"default_left":[0,0,0,0,0,0,0,0,0,0,0,0,0],"id":67,"left_children":[1,3,5,7,9,11,-1,-1,-1,-1,-1,-1,-1],"loss_changes":[1.759016E3,5.5819775E2,4.8176636E1,4.5433167E1,1.11368835E2,2.9362411E1,0E0,0E0,0E0,0E0,0E0,0E0,0E0],"parents":[2147483647,0,0,1,1,2,2,3,3,4,4,5,5],"right_children":[2,4,6,8,10,12,-1,-1,-1,-1,-1,-1,-1],"split_conditions":[9.268E3,1.18E3,1.2108E4,1.37E2,5.985E3,5.3E1,-1.4187941E-2,1.3427713E-2,4.791601E-3,9.3941897E-4,1.3301464E-2,-9.076549E-3,8.81918E-3],"split_indices":[8,8,8,6,6,6,0,0,0,0,0,0,0],"split_type":[0,0,0,0,0,0,0,0,0,0,0,0,0],"sum_hessian":[3.3280884E3,2.502132E3,8.259564E2,6.253094E2,1.8768228E3,2.3047824E2,5.954782E2,5.4491156E2,8.03978E1,1.8024385E3,7.438418E1,2.2358054E2,6.897703E0],"tree_param":{"num_deleted":"0","num_feature":"10","num_nodes":"13","size_leaf_vector":"1"}},{"base_weights":[-2.295866E-3,4.315981E-1,-1.2081536E0,1.231529E0,1.5277277E-1,-7.770716E-1,-1.41423615E-2,1.596242E-2,1.0347394E-2,9.3519E-3,5.539872E-4,-8.133824E-3,-8.801068E-4],"categories":[],"categories_nodes":[],"categories_segments":[],"categories_sizes":[],"default_left":[0,0,0,0,0,0,0,0,0,0,0,0,0],"id":68,"left_children":[1,3,5,7,9,11,-1,-1,-1,-1,-1,-1,-1],"loss_changes":[1.7437035E3,5.4273065E2,7.180078E1,3.66828E1,1.3649782E2,5.3835907E0,0E0,0E0,0E0,0E0,0E0,0E0,0E0],"parents":[2147483647,0,0,1,1,2,2,3,3,4,4,5,5],"right_children":[2,4,6,8,10,12,-1,-1,-1,-1,-1,-1,-1],"split_conditions":[8.764E3,1.18E3,1.2108E4,4E0,5.7E1,1.188E4,-1.41423615E-2,1.596242E-2,1.0347394E-2,9.3519E-3,5.539872E-4,-8.133824E-3,-8.801068E-4],"split_indices":[8,8,8,8,4,8,0,0,0,0,0,0,0],"split_type":[0,0,0,0,0,0,0,0,0,0,0,0,0],"sum_hessian":[3.3257134E3,2.4454226E3,8.802909E2,6.284463E2,1.8169763E3,2.9094363E2,5.893473E2,2.1170471E2,4.167416E2,1.969225E2,1.6200538E3,2.7327954E2,1.766409E1],"tree_param":{"num_deleted":"0","num_feature":"10","num_nodes":"13","size_leaf_vector":"1"}},{"base_weights":[4.1386914E-3,4.3257022E-1,-1.188869E0,-3.8478252E-1,8.336361E-1,-7.4605596E-1,-1.4076377E-2,1.6693845E-2,-6.264849E-3,8.682031E-3,-1.6458582E-2,-1.1545145E-2,-3.5156182E-3],"categories":[],"categories_nodes":[],"categories_segments":[],"categories_sizes":[],"default_left":[0,0,0,0,0,0,0,0,0,0,0,0,0],"id":69,"left_children":[1,3,5,7,9,11,-1,-1,-1,-1,-1,-1,-1],"loss_changes":[1.6886471E3,7.995127E2,7.811572E1,3.9770175E2,1.4145654E2,4.383911E1,0E0,0E0,0E0,0E0,0E0,0E0,0E0],"parents":[2147483647,0,0,1,1,2,2,3,3,4,4,5,5],"right_children":[2,4,6,8,10,12,-1,-1,-1,-1,-1,-1,-1],"split_conditions":[8.764E3,2.09E2,1.2108E4,4E0,9.212E3,1.69E2,-1.4076377E-2,1.6693845E-2,-6.264849E-3,8.682031E-3,-1.6458582E-2,-1.1545145E-2,-3.5156182E-3],"split_indices":[8,2,8,8,9,2,0,0,0,0,0,0,0],"split_type":[0,0,0,0,0,0,0,0,0,0,0,0,0],"sum_hessian":[3.3027507E3,2.432239E3,8.7051166E2,7.990034E2,1.6332356E3,2.9379648E2,5.7671515E2,8.200191E1,7.170015E2,1.6128568E3,2.0378765E1,1.3995961E2,1.5383687E2],"tree_param":{"num_deleted":"0","num_feature":"10","num_nodes":"13","size_leaf_vector":"1"}},{"base_weights":[5.906992E-3,-7.67555E-1,4.8924494E-1,1.4784895E-1,-9.7398627E-1,7.237133E-1,-2.344323E-1,2.6182907E-3,-1.2655102E-2,1.3717347E-2,-9.958707E-3,1.1877204E-2,2.6681428E-3,-1.698649E-2,2.5381553E-3],"categories":[],"categories_nodes":[],"categories_segments":[],"categories_sizes":[],"default_left":[0,0,0,0,0,0,0,0,0,0,0,0,0,0,0],"id":70,"left_children":[1,3,5,7,9,11,13,-1,-1,-1,-1,-1,-1,-1,-1],"loss_changes":[1.2397239E3,2.427439E2,3.480285E2,3.6422714E1,5.5464417E1,3.2419067E2,3.6080704E2,0E0,0E0,0E0,0E0,0E0,0E0,0E0,0E0],"parents":[2147483647,0,0,1,1,2,2,3,3,4,4,5,5,6,6],"right_children":[2,4,6,8,10,12,14,-1,-1,-1,-1,-1,-1,-1,-1],"split_conditions":[1.86E2,4.2E1,1.188E3,8.116E3,2.2E1,5E0,1.444E3,2.6182907E-3,-1.2655102E-2,1.3717347E-2,-9.958707E-3,1.1877204E-2,2.6681428E-3,-1.698649E-2,2.5381553E-3],"split_indices":[2,2,9,9,5,0,9,0,0,0,0,0,0,0,0],"split_type":[0,0,0,0,0,0,0,0,0,0,0,0,0,0,0],"sum_hessian":[3.313637E3,1.2723092E3,2.0413279E3,2.3244191E2,1.0398673E3,1.5438807E3,4.974472E2,2.1791293E2,1.4528991E1,7.626783E0,1.0322405E3,7.62223E2,7.8165765E2,1.2417984E2,3.7326736E2],"tree_param":{"num_deleted":"0","num_feature":"10","num_nodes":"15","size_leaf_vector":"1"}},{"base_weights":[2.1151025E-3,-8.2627684E-1,3.1799772E-1,-1.1358418E0,-1.9170545E-1,3.3656064E-2,1.1494988E0,5.110804E-4,-1.2094662E-2,8.375656E-3,-1.4084069E-2,3.6582577E-3,-1.1767184E-2,1.2708278E-2,-9.229797E-3],"categories":[],"categories_nodes":[],"categories_segments":[],"categories_sizes":[],"default_left":[0,0,0,0,0,0,0,0,0,0,0,0,0,0,0],"id":71,"left_children":[1,3,5,7,9,11,13,-1,-1,-1,-1,-1,-1,-1,-1],"loss_changes":[8.603331E2,1.7506946E2,5.613803E2,5.5489136E1,3.8156628E2,7.152513E2,1.5537903E2,0E0,0E0,0E0,0E0,0E0,0E0,0E0,0E0],"parents":[2147483647,0,0,1,1,2,2,3,3,4,4,5,5,6,6],"right_children":[2,4,6,8,10,12,14,-1,-1,-1,-1,-1,-1,-1,-1],"split_conditions":[1E0,3.84E2,5.3E1,2.448E3,7.112E3,9.584E3,1.2044E4,5.110804E-4,-1.2094662E-2,8.375656E-3,-1.4084069E-2,3.6582577E-3,-1.1767184E-2,1.2708278E-2,-9.229797E-3],"split_indices":[1,9,6,8,8,8,8,0,0,0,0,0,0,0,0],"split_type":[0,0,0,0,0,0,0,0,0,0,0,0,0,0,0],"sum_hessian":[3.287674E3,9.0493866E2,2.3827356E3,6.0504565E2,2.99893E2,1.7789043E3,6.038311E2,3.3787067E1,5.712586E2,1.6190694E2,1.3798607E2,1.3982286E3,3.806757E2,5.720786E2,3.1752554E1],"tree_param":{"num_deleted":"0","num_feature":"10","num_nodes":"15","size_leaf_vector":"1"}},{"base_weights":[-1.1200202E-3,-7.928218E-1,2.962244E-1,-9.408784E-1,6.204521E-1,-4.9586636E-1,6.695238E-1,-1.1723788E-2,8.2057295E-4,1.58768E-2,-3.7600464E-4,-2.8346814E-3,-1.3042009E-2,1.3134601E-2,4.0252046E-3],"categories":[],"categories_nodes":[],"categories_segments":[],"categories_sizes":[],"default_left":[0,0,0,0,0,0,0,0,0,0,0,0,0,0,0],"id":72,"left_children":[1,3,5,7,9,11,13,-1,-1,-1,-1,-1,-1,-1,-1],"loss_changes":[7.779576E2,1.9075159E2,7.09929E2,1.9642145E2,5.7671707E1,1.2784137E2,2.761253E2,0E0,0E0,0E0,0E0,0E0,0E0,0E0,0E0],"parents":[2147483647,0,0,1,1,2,2,3,3,4,4,5,5,6,6],"right_children":[2,4,6,8,10,12,14,-1,-1,-1,-1,-1,-1,-1,-1],"split_conditions":[1E0,3.19E2,1.8E2,3.79E2,3.31E2,1.66E2,5.06E2,-1.1723788E-2,8.2057295E-4,1.58768E-2,-3.7600464E-4,-2.8346814E-3,-1.3042009E-2,1.3134601E-2,4.0252046E-3],"split_indices":[1,2,2,3,2,2,5,0,0,0,0,0,0,0,0],"split_type":[0,0,0,0,0,0,0,0,0,0,0,0,0,0,0],"sum_hessian":[3.2965046E3,9.0097766E2,2.395527E3,8.174265E2,8.355111E1,7.654121E2,1.630115E3,6.679303E2,1.4949625E2,3.3915234E1,4.9635876E1,6.1024066E2,1.5517142E2,4.7330606E2,1.156809E3],"tree_param":{"num_deleted":"0","num_feature":"10","num_nodes":"15","size_leaf_vector":"1"}},{"base_weights":[5.4273955E-3,4.258189E-1,-1.1722858E0,-1.3714569E-2,5.4801536E-1,-7.208737E-1,-1.3883519E-2,1.2049579E-2,3.0100404E-3,-4.370353E-3,-1.1321907E-2],"categories":[],"categories_nodes":[],"categories_segments":[],"categories_sizes":[],"default_left":[0,0,0,0,0,0,0,0,0,0,0],"id":73,"left_children":[1,3,5,-1,7,9,-1,-1,-1,-1,-1],"loss_changes":[1.6185455E3,5.297168E2,7.761194E1,0E0,3.6324072E2,2.9189743E1,0E0,0E0,0E0,0E0,0E0],"parents":[2147483647,0,0,1,1,2,2,4,4,5,5],"right_children":[2,4,6,-1,8,10,-1,-1,-1,-1,-1],"split_conditions":[8.764E3,1.495E3,1.2108E4,-1.3714569E-2,1.18E3,1.184E3,-1.3883519E-2,1.2049579E-2,3.0100404E-3,-4.370353E-3,-1.1321907E-2],"split_indices":[8,7,8,0,8,9,0,0,0,0,0],"split_type":[0,0,0,0,0,0,0,0,0,0,0],"sum_hessian":[3.2681235E3,2.4106155E3,8.5750793E2,1.5111978E2,2.2594956E3,2.8338342E2,5.741245E2,6.1309E2,1.6464056E3,1.7299316E2,1.10390274E2],"tree_param":{"num_deleted":"0","num_feature":"10","num_nodes":"11","size_leaf_vector":"1"}},{"base_weights":[2.6675034E-3,-8.073176E-1,3.169256E-1,-1.588591E-1,-1.1102549E0,5.781745E-1,-4.186416E-1,7.395293E-3,-1.434297E-2,-1.0044462E-2,-1.613747E-2,2.8092777E-3,1.1636408E-2,-1.7263459E-2,-1.2832485E-3],"categories":[],"categories_nodes":[],"categories_segments":[],"categories_sizes":[],"default_left":[0,0,0,0,0,0,0,0,0,0,0,0,0,0,0],"id":74,"left_children":[1,3,5,7,9,11,13,-1,-1,-1,-1,-1,-1,-1,-1],"loss_changes":[8.371928E2,1.7757385E2,4.570368E2,3.4376965E2,2.4749268E1,3.0183807E2,2.3175443E2,0E0,0E0,0E0,0E0,0E0,0E0,0E0,0E0],"parents":[2147483647,0,0,1,1,2,2,3,3,4,4,5,5,6,6],"right_children":[2,4,6,8,10,12,14,-1,-1,-1,-1,-1,-1,-1,-1],"split_conditions":[1E0,3E0,1.188E3,7.204E3,1.535E3,5.3E1,1.416E3,7.395293E-3,-1.434297E-2,-1.0044462E-2,-1.613747E-2,2.8092777E-3,1.1636408E-2,-1.7263459E-2,-1.2832485E-3],"split_indices":[1,0,9,9,7,6,9,0,0,0,0,0,0,0,0],"split_type":[0,0,0,0,0,0,0,0,0,0,0,0,0,0,0],"sum_hessian":[3.2888286E3,9.1666547E2,2.372163E3,2.9495166E2,6.217138E2,1.7527809E3,6.1938226E2,1.726285E2,1.2232317E2,5.2198175E2,9.9732025E1,1.1667745E3,5.860064E2,1.0947601E2,5.0990622E2],"tree_param":{"num_deleted":"0","num_feature":"10","num_nodes":"15","size_leaf_vector":"1"}},{"base_weights":[7.4827485E-3,4.2244196E-1,-1.1646035E0,-1.3637216E-2,5.416965E-1,-7.277476E-1,-1.3725053E-2,1.2020667E-2,2.9830562E-3,-8.0294125E-3,1.09057315E-2],"categories":[],"categories_nodes":[],"categories_segments":[],"categories_sizes":[],"default_left":[0,0,0,0,0,0,0,0,0,0,0],"id":75,"left_children":[1,3,5,-1,7,9,-1,-1,-1,-1,-1],"loss_changes":[1.5945693E3,5.163329E2,7.1615845E1,0E0,3.620202E2,3.9954758E1,0E0,0E0,0E0,0E0,0E0],"parents":[2147483647,0,0,1,1,2,2,4,4,5,5],"right_children":[2,4,6,-1,8,10,-1,-1,-1,-1,-1],"split_conditions":[8.764E3,1.495E3,1.2044E4,-1.3637216E-2,1.18E3,5.3E1,-1.3725053E-2,1.2020667E-2,2.9830562E-3,-8.0294125E-3,1.09057315E-2],"split_indices":[8,7,8,0,8,6,0,0,0,0,0],"split_type":[0,0,0,0,0,0,0,0,0,0,0],"sum_hessian":[3.2775535E3,2.422788E3,8.5476556E2,1.492793E2,2.2735088E3,2.8162305E2,5.731425E2,6.079414E2,1.6655673E3,2.725682E2,9.054858E0],"tree_param":{"num_deleted":"0","num_feature":"10","num_nodes":"11","size_leaf_vector":"1"}},{"base_weights":[-3.686535E-3,-7.574759E-1,4.66222E-1,1.6443918E-2,-9.2515427E-1,7.763188E-1,-1.0461216E0,1.3942358E-3,-1.1532215E-2,1.2212836E-2,5.997128E-3,-4.5940266E-3,-1.4184506E-2],"categories":[],"categories_nodes":[],"categories_segments":[],"categories_sizes":[],"default_left":[0,0,0,0,0,0,0,0,0,0,0,0,0],"id":76,"left_children":[1,3,5,-1,7,9,11,-1,-1,-1,-1,-1,-1],"loss_changes":[1.1583651E3,5.077699E2,9.4457324E2,0E0,2.8808197E2,1.2626453E2,6.966815E1,0E0,0E0,0E0,0E0,0E0,0E0],"parents":[2147483647,0,0,1,1,2,2,4,4,5,5,6,6],"right_children":[2,4,6,-1,8,10,12,-1,-1,-1,-1,-1,-1],"split_conditions":[1.86E2,4E0,8.96E3,1.6443918E-2,3.2E1,5.06E2,1.2216E4,1.3942358E-3,-1.1532215E-2,1.2212836E-2,5.997128E-3,-4.5940266E-3,-1.4184506E-2],"split_indices":[2,8,8,0,2,5,8,0,0,0,0,0,0],"split_type":[0,0,0,0,0,0,0,0,0,0,0,0,0],"sum_hessian":[3.2646204E3,1.2548014E3,2.0098191E3,7.99556E1,1.1748458E3,1.669744E3,3.40075E2,2.0587337E2,9.689724E2,4.6784277E2,1.2019012E3,1.3584645E2,2.0422855E2],"tree_param":{"num_deleted":"0","num_feature":"10","num_nodes":"13","size_leaf_vector":"1"}},{"base_weights":[-8.40385E-3,3.9810032E-1,-1.1585435E0,-3.7392882E-1,7.698254E-1,-1.3003781E-2,-9.622626E-1,1.6345989E-2,-6.17587E-3,1.1739716E-2,5.896748E-3,-3.3266726E-3,-1.3992096E-2],"categories":[],"categories_nodes":[],"categories_segments":[],"categories_sizes":[],"default_left":[0,0,0,0,0,0,0,0,0,0,0,0,0],"id":77,"left_children":[1,3,5,7,9,-1,11,-1,-1,-1,-1,-1,-1],"loss_changes":[1.5219404E3,6.9055615E2,1.664978E1,3.817591E2,1.1328375E2,0E0,9.749765E1,0E0,0E0,0E0,0E0,0E0,0E0],"parents":[2147483647,0,0,1,1,2,2,3,3,4,4,6,6],"right_children":[2,4,6,8,10,-1,12,-1,-1,-1,-1,-1,-1],